tree
version=v3
num_class=1
num_tree_per_iteration=1
label_index=0
max_feature_idx=10
objective=regression
feature_names=skutertiaryid promo_7182 promo_7189 promo_7193 promo_7194 promo_7205 promo_7232 promo_7234 promo_7236 promo_7238 season
feature_infos=[7182:7247] [0:1] [0:1] [0:1] [0:1] [0:1] [0:1] [0:1] [0:1] none [32730.599609375:349470.40625]
tree_sizes=1679 1722 1721 1713 1720 1720 1718 1717 1718 1717 1718 1804 1718 1721 1796 1720 1717 1807 1723 1725 1720 1722 1722 1718 1726 1722 1804 1729 1724 1715 1727 1724 1733 1728 1733 1727 1726 1727 1725 1730 1724 1721 1728 1727 1729 1723 1726 1725 1722 1723 1714 1721 1718 1727 1722 1721 1731 1717 1726 1727 1719 1716 1720 1720 1644 1727 1722 1729 1724 1719 1714 1727 1723 1725 1738 1646 1718 1722 1637 1635 1646 1628 1639 1638 1812 1637 1730 1735 1639 1719 1645 1822 1821 1634 1818 1716 1823 1816 1642 1720

Tree=0
num_leaves=19
num_cat=0
split_feature=10 10 10 10 10 0 0 0 0 10 10 10 0 10 10 3 10 0
split_gain=2.98264e+12 5.00558e+11 2.69773e+11 6.65361e+10 5.02328e+10 3.83868e+10 2.39443e+10 1.65307e+10 1.21365e+10 1.02742e+10 2.4536e+09 5.22475e+09 1.40387e+09 3.2922e+09 8.80616e+08 8.79579e+08 1.32631e+08 3.51248e+08
threshold=147822.00000000003 223136.90625000003 66698.000000000015 98664.402343750015 186981.39843750003 7199.5000000000009 7218.5000000000009 7233.0000000000009 7233.0000000000009 60013.199218750007 80398.597656250015 74542.703125000015 7235.0000000000009 51446.800781250007 88131.097656250015 1.0000000180025095e-35 53222.898437500007 7242.5000000000009
decision_type=2 2 2 2 2 2 2 2 2 2 2 2 2 2 2 2 2 2
left_child=2 4 9 10 5 -2 -5 -3 -6 12 11 -4 13 -1 -12 16 17 -14
right_child=1 7 3 6 8 -7 -8 -9 -10 -11 14 -13 15 -15 -16 -17 -18 -19
leaf_value=133927.20597627826 135594.08182635217 136508.03998084436 134413.9100881645 134939.42468554969 135906.21388500172 135089.53732734095 134555.6531446109 136864.12719364621 135566.23492294815 134169.91849809696 134458.8578651624 134205.2487523084 133948.4618921942 134075.75452225062 134374.42567133383 133984.15700898712 133893.97460330531 133900.74805972891
leaf_weight=37 25 32 24 37 21 38 29 22 21 24 21 24 27 25 30 22 25 36
leaf_count=37 25 32 24 37 21 38 29 22 21 24 21 24 27 25 30 22 25 36
internal_value=134730 135871 134227 134525 135468 135290 134771 136653 135736 133976 134361 134310 133949 133987 134409 133928 133913 133921
internal_weight=0 159 361 165 105 63 66 54 42 196 99 48 172 62 51 110 88 63
internal_count=520 159 361 165 105 63 66 54 42 196 99 48 172 62 51 110 88 63
is_linear=0
shrinkage=1


Tree=1
num_leaves=19
num_cat=0
split_feature=10 10 10 10 10 0 0 0 0 10 10 10 0 10 10 3 10 0
split_gain=2.92328e+12 4.90597e+11 2.64404e+11 6.5212e+10 4.92331e+10 3.76229e+10 2.34678e+10 1.62018e+10 1.1895e+10 1.00698e+10 2.40477e+09 5.12077e+09 1.37594e+09 3.22669e+09 8.63092e+08 8.62075e+08 1.29992e+08 3.44259e+08
threshold=147822.00000000003 223136.90625000003 66698.000000000015 98664.402343750015 186981.39843750003 7199.5000000000009 7218.5000000000009 7233.0000000000009 7233.0000000000009 60013.199218750007 80398.597656250015 74542.703125000015 7235.0000000000009 51446.800781250007 88131.097656250015 1.0000000180025095e-35 53222.898437500007 7242.5000000000009
decision_type=2 2 2 2 2 2 2 2 2 2 2 2 2 2 2 2 2 2
left_child=2 4 9 10 5 -2 -5 -3 -6 12 11 -4 13 -1 -12 16 17 -14
right_child=1 7 3 6 8 -7 -8 -9 -10 -11 14 -13 15 -15 -16 -17 -18 -19
leaf_value=-794.30906566722979 855.89800000000002 1760.7164746093749 -312.47201334635417 207.78743484084669 1164.9086960565476 356.39894113641037 -172.14638617416909 2113.2428693181819 828.32956101190473 -554.02369628906251 -267.97372417631601 -519.04674916585293 -773.26572048611115 -647.24604238281256 -351.56159110514324 -737.92757102272719 -827.20816093750011 -820.50244303385421
leaf_weight=37 25 32 24 37 21 38 29 22 21 24 21 24 27 25 30 22 25 36
leaf_count=37 25 32 24 37 21 38 29 22 21 24 21 24 27 25 30 22 25 36
internal_value=0 1129.77 -497.598 -202.635 731.415 554.613 40.8468 1904.34 996.619 -745.908 -364.957 -415.759 -772.683 -735.009 -317.143 -793.917 -807.914 -800.258
internal_weight=0 159 361 165 105 63 66 54 42 196 99 48 172 62 51 110 88 63
internal_count=520 159 361 165 105 63 66 54 42 196 99 48 172 62 51 110 88 63
is_linear=0
shrinkage=0.01


Tree=2
num_leaves=19
num_cat=0
split_feature=10 10 10 10 10 0 0 0 0 10 10 10 0 10 10 3 10 0
split_gain=2.86511e+12 4.80834e+11 2.59143e+11 6.39143e+10 4.82534e+10 3.68742e+10 2.30008e+10 1.58793e+10 1.16583e+10 9.86937e+09 2.35692e+09 5.01887e+09 1.34855e+09 3.16248e+09 8.45916e+08 8.4492e+08 1.27405e+08 3.37407e+08
threshold=147822.00000000003 223136.90625000003 66698.000000000015 98664.402343750015 186981.39843750003 7199.5000000000009 7218.5000000000009 7233.0000000000009 7233.0000000000009 60013.199218750007 80398.597656250015 74542.703125000015 7235.0000000000009 51446.800781250007 88131.097656250015 1.0000000180025095e-35 53222.898437500007 7242.5000000000009
decision_type=2 2 2 2 2 2 2 2 2 2 2 2 2 2 2 2 2 2
left_child=2 4 9 10 5 -2 -5 -3 -6 12 11 -4 13 -1 -12 16 17 -14
right_child=1 7 3 6 8 -7 -8 -9 -10 -11 14 -13 15 -15 -16 -17 -18 -19
leaf_value=-786.36601140202708 847.33899492187504 1743.1094000244141 -309.3472930908203 205.70955824568463 1153.2596065848215 352.83495020816196 -170.42493225097655 2092.1103799715911 820.04626581101184 -548.48346028645835 -265.29397815522697 -513.85628051757817 -765.53306423611116 -640.7735596679687 -348.04596836344405 -730.54828480113633 -818.93605624999998 -812.29736979166671
leaf_weight=37 25 32 24 37 21 38 29 22 21 24 21 24 27 25 30 22 25 36
leaf_count=37 25 32 24 37 21 38 29 22 21 24 21 24 27 25 30 22 25 36
internal_value=0 1118.47 -492.622 -200.609 724.101 549.067 40.4383 1885.29 986.653 -738.449 -361.307 -411.602 -764.956 -727.659 -313.972 -785.978 -799.835 -792.256
internal_weight=0 159 361 165 105 63 66 54 42 196 99 48 172 62 51 110 88 63
internal_count=520 159 361 165 105 63 66 54 42 196 99 48 172 62 51 110 88 63
is_linear=0
shrinkage=0.01


Tree=3
num_leaves=19
num_cat=0
split_feature=10 10 10 10 10 0 0 0 0 10 10 10 0 10 10 3 10 0
split_gain=2.80809e+12 4.71266e+11 2.53986e+11 6.26424e+10 4.73187e+10 2.45997e+10 2.2543e+10 1.99025e+10 1.55633e+10 9.67297e+09 2.31001e+09 4.919e+09 1.32172e+09 3.09955e+09 8.29082e+08 8.28106e+08 1.2487e+08 3.30693e+08
threshold=147822.00000000003 223136.90625000003 66698.000000000015 98664.402343750015 179372.60156250003 7199.5000000000009 7218.5000000000009 7218.5000000000009 7233.0000000000009 60013.199218750007 80398.597656250015 74542.703125000015 7235.0000000000009 51446.800781250007 88131.097656250015 1.0000000180025095e-35 53222.898437500007 7242.5000000000009
decision_type=2 2 2 2 2 2 2 2 2 2 2 2 2 2 2 2 2 2
left_child=2 4 9 10 5 -2 -5 -6 -3 12 11 -4 13 -1 -12 16 17 -14
right_child=1 8 3 6 7 -7 -8 -9 -10 -11 14 -13 15 -15 -16 -17 -18 -19
leaf_value=-778.50233952702706 753.38681713867197 1725.6782965087891 -306.25382202148438 203.65245795172615 1101.8348863002232 294.19814793178017 -168.72067864779768 728.0572543440195 2071.1893075284092 -542.99861897786457 -262.64104064941409 -508.71771728515625 -757.87775173611112 -634.36582519531248 -344.56550154622397 -723.24280539772724 -810.7466921875 -804.17440104166678
leaf_weight=37 20 32 24 37 28 28 29 29 22 24 21 24 27 25 30 22 25 36
leaf_count=37 20 32 24 37 28 28 29 29 22 24 21 24 27 25 30 22 25 36
internal_value=0 1107.28 -487.696 -198.603 716.86 485.527 40.034 911.667 1866.44 -731.065 -357.694 -407.486 -757.307 -720.383 -310.832 -778.118 -791.837 -784.333
internal_weight=0 159 361 165 105 48 66 57 54 196 99 48 172 62 51 110 88 63
internal_count=520 159 361 165 105 48 66 57 54 196 99 48 172 62 51 110 88 63
is_linear=0
shrinkage=0.01


Tree=4
num_leaves=19
num_cat=0
split_feature=10 10 10 10 10 0 0 0 0 10 10 10 0 10 10 3 10 0
split_gain=2.75221e+12 4.61887e+11 2.48932e+11 6.13958e+10 4.65751e+10 3.55595e+10 2.20944e+10 1.52536e+10 1.11688e+10 9.48048e+09 2.26404e+09 4.82111e+09 1.29542e+09 3.03787e+09 8.12584e+08 8.11627e+08 1.22385e+08 3.24112e+08
threshold=147822.00000000003 223136.90625000003 66698.000000000015 98664.402343750015 186981.39843750003 7199.5000000000009 7218.5000000000009 7233.0000000000009 7233.0000000000009 60013.199218750007 80398.597656250015 74542.703125000015 7235.0000000000009 51446.800781250007 88131.097656250015 1.0000000180025095e-35 53222.898437500007 7242.5000000000009
decision_type=2 2 2 2 2 2 2 2 2 2 2 2 2 2 2 2 2 2
left_child=2 4 9 10 5 -2 -5 -3 -6 12 11 -4 13 -1 -12 16 17 -14
right_child=1 7 3 6 8 -7 -8 -9 -10 -11 14 -13 15 -15 -16 -17 -18 -19
leaf_value=-770.71733108108106 830.63485292968744 1708.4214508056641 -303.1912821451823 201.61594177246093 1130.7086616443453 345.02616596422695 -167.03346094591865 2050.4774147727276 804.56520275297623 -537.56864339192714 -260.0146334984189 -503.63053181966148 -750.29898437500003 -628.02215546875004 -341.11986836751305 -716.01038352272724 -802.6392484375001 -796.13268012152787
leaf_weight=37 25 32 24 37 21 38 29 22 21 24 21 24 27 25 30 22 25 36
leaf_count=37 25 32 24 37 21 38 29 22 21 24 21 24 27 25 30 22 25 36
internal_value=0 1096.21 -482.819 -196.617 709.692 537.728 39.6336 1847.78 967.637 -723.754 -354.117 -403.411 -749.733 -713.179 -307.724 -770.337 -783.919 -776.49
internal_weight=0 159 361 165 105 63 66 54 42 196 99 48 172 62 51 110 88 63
internal_count=520 159 361 165 105 63 66 54 42 196 99 48 172 62 51 110 88 63
is_linear=0
shrinkage=0.01


Tree=5
num_leaves=19
num_cat=0
split_feature=10 10 10 10 10 0 0 0 0 10 10 10 0 10 10 3 10 0
split_gain=2.69744e+12 4.52696e+11 2.43978e+11 6.0174e+10 4.57219e+10 2.35978e+10 2.16548e+10 1.91463e+10 1.49501e+10 9.29182e+09 2.21899e+09 4.72517e+09 1.26964e+09 2.97741e+09 7.96413e+08 7.95475e+08 1.19949e+08 3.17663e+08
threshold=147822.00000000003 223136.90625000003 66698.000000000015 98664.402343750015 179372.60156250003 7199.5000000000009 7218.5000000000009 7218.5000000000009 7233.0000000000009 60013.199218750007 80398.597656250015 74542.703125000015 7235.0000000000009 51446.800781250007 88131.097656250015 1.0000000180025095e-35 53222.898437500007 7242.5000000000009
decision_type=2 2 2 2 2 2 2 2 2 2 2 2 2 2 2 2 2 2
left_child=2 4 9 10 5 -2 -5 -6 -3 12 11 -4 13 -1 -12 16 17 -14
right_child=1 8 3 6 7 -7 -8 -9 -10 -11 14 -13 15 -15 -16 -17 -18 -19
leaf_value=-763.01015202702706 737.54658081054686 1691.3372277832032 -300.15937337239581 199.59977987753382 1080.606502859933 287.80590750558036 -165.36314036007585 713.99870352909477 2029.9726882102275 -532.19294270833336 -257.41448143368677 -498.59422342936199 -742.79597222222219 -621.7419383789063 -337.70866141764321 -708.85029119318176 -794.61285312500002 -788.17135199652785
leaf_weight=37 20 32 24 37 28 28 29 29 22 24 21 24 27 25 30 22 25 36
leaf_count=37 20 32 24 37 28 28 29 29 22 24 21 24 27 25 30 22 25 36
internal_value=0 1085.25 -477.991 -194.651 702.595 475.198 39.2373 894.087 1829.3 -716.517 -350.576 -399.377 -742.236 -706.047 -304.646 -762.634 -776.079 -768.725
internal_weight=0 159 361 165 105 48 66 57 54 196 99 48 172 62 51 110 88 63
internal_count=520 159 361 165 105 48 66 57 54 196 99 48 172 62 51 110 88 63
is_linear=0
shrinkage=0.01


Tree=6
num_leaves=19
num_cat=0
split_feature=10 10 10 10 10 0 0 0 0 10 10 10 0 10 10 3 10 0
split_gain=2.64376e+12 4.43687e+11 2.39123e+11 5.89766e+10 4.49548e+10 3.42932e+10 2.12238e+10 1.46526e+10 1.06994e+10 9.10691e+09 2.17483e+09 4.63114e+09 1.24437e+09 2.91816e+09 7.80565e+08 7.79645e+08 1.17562e+08 3.11341e+08
threshold=147822.00000000003 223136.90625000003 66698.000000000015 98664.402343750015 186981.39843750003 7199.5000000000009 7218.5000000000009 7233.0000000000009 7233.0000000000009 60013.199218750007 80398.597656250015 74542.703125000015 7235.0000000000009 51446.800781250007 88131.097656250015 1.0000000180025095e-35 53222.898437500007 7242.5000000000009
decision_type=2 2 2 2 2 2 2 2 2 2 2 2 2 2 2 2 2 2
left_child=2 4 9 10 5 -2 -5 -3 -6 12 11 -4 13 -1 -12 16 17 -14
right_child=1 7 3 6 8 -7 -8 -9 -10 -11 14 -13 15 -15 -16 -17 -18 -19
leaf_value=-755.38006545608107 814.26690136718753 1674.4239239501953 -297.15776855468749 197.60377962679476 1108.5955347842262 337.38332930715467 -163.7095062939874 2009.6728799715909 789.37957682291676 -526.87101562500004 -254.84033784412205 -493.60828328450526 -735.36800491898146 -615.5245169921875 -334.3315861816406 -701.76177556818175 -786.66669218750008 -780.28963378906246
leaf_weight=37 25 32 24 37 21 38 29 22 21 24 21 24 27 25 30 22 25 36
leaf_count=37 25 32 24 37 21 38 29 22 21 24 21 24 27 25 30 22 25 36
internal_value=0 1074.4 -473.211 -192.704 695.569 526.623 38.8449 1811.01 948.988 -709.351 -347.071 -395.383 -734.814 -698.987 -301.6 -755.007 -768.319 -761.038
internal_weight=0 159 361 165 105 63 66 54 42 196 99 48 172 62 51 110 88 63
internal_count=520 159 361 165 105 63 66 54 42 196 99 48 172 62 51 110 88 63
is_linear=0
shrinkage=0.01


Tree=7
num_leaves=19
num_cat=0
split_feature=10 10 10 10 10 0 0 0 0 10 10 10 0 10 10 3 10 0
split_gain=2.59115e+12 4.34858e+11 2.34364e+11 5.78029e+10 4.41794e+10 2.26354e+10 2.08015e+10 1.84192e+10 1.4361e+10 8.92568e+09 2.13155e+09 4.53898e+09 1.21961e+09 2.86009e+09 7.65031e+08 7.64131e+08 1.15223e+08 3.05146e+08
threshold=147822.00000000003 223136.90625000003 66698.000000000015 98664.402343750015 179372.60156250003 7199.5000000000009 7218.5000000000009 7218.5000000000009 7233.0000000000009 60013.199218750007 80398.597656250015 74542.703125000015 7235.0000000000009 51446.800781250007 88131.097656250015 1.0000000180025095e-35 53222.898437500007 7242.5000000000009
decision_type=2 2 2 2 2 2 2 2 2 2 2 2 2 2 2 2 2 2
left_child=2 4 9 10 5 -2 -5 -6 -3 12 11 -4 13 -1 -12 16 17 -14
right_child=1 8 3 6 7 -7 -8 -9 -10 -11 14 -13 15 -15 -16 -17 -18 -19
leaf_value=-747.82624577702711 722.02845434570304 1657.6795922851563 -294.18619812011718 195.6277448664485 1059.7909235491072 281.5540078299386 -162.07240614266232 700.21182036301184 1989.5761754261366 -521.60231445312502 -252.29193824404763 -488.67221679687503 -728.01433449074079 -609.3692798583985 -330.98826570638022 -694.74414595170458 -778.80004062499995 -772.48674262152781
leaf_weight=37 20 32 24 37 28 28 29 29 22 24 21 24 27 25 30 22 25 36
leaf_count=37 20 32 24 37 28 28 29 29 22 24 21 24 27 25 30 22 25 36
internal_value=0 1063.65 -468.479 -190.777 688.613 465.085 38.4565 876.847 1792.9 -702.258 -343.6 -391.429 -727.466 -691.997 -298.584 -747.457 -760.635 -753.427
internal_weight=0 159 361 165 105 48 66 57 54 196 99 48 172 62 51 110 88 63
internal_count=520 159 361 165 105 48 66 57 54 196 99 48 172 62 51 110 88 63
is_linear=0
shrinkage=0.01


Tree=8
num_leaves=19
num_cat=0
split_feature=10 10 10 10 10 0 0 0 0 10 10 10 0 10 10 3 10 0
split_gain=2.53959e+12 4.26204e+11 2.297e+11 5.66526e+10 4.33905e+10 3.30734e+10 2.03875e+10 1.40752e+10 1.02492e+10 8.74806e+09 2.08913e+09 4.45436e+09 1.19534e+09 2.80317e+09 7.49807e+08 7.48924e+08 1.1293e+08 2.99074e+08
threshold=147822.00000000003 223136.90625000003 66698.000000000015 98664.402343750015 186981.39843750003 7199.5000000000009 7218.5000000000009 7233.0000000000009 7233.0000000000009 60013.199218750007 80398.597656250015 73877.601562500015 7235.0000000000009 51446.800781250007 88131.097656250015 1.0000000180025095e-35 53222.898437500007 7242.5000000000009
decision_type=2 2 2 2 2 2 2 2 2 2 2 2 2 2 2 2 2 2
left_child=2 4 9 10 5 -2 -5 -3 -6 12 11 -4 13 -1 -12 16 17 -14
right_child=1 7 3 6 8 -7 -8 -9 -10 -11 14 -13 15 -15 -16 -17 -18 -19
leaf_value=-740.34796505489874 798.22843251953122 1641.1028515625001 -278.28427083333332 193.67146227037586 1086.9116382998511 329.90297112715876 -160.45169282058191 1969.680379971591 774.48366908482149 -516.38629882812506 -249.7690164620536 -472.47205928096071 -720.73417968750005 -603.27559072875977 -327.67838289388021 -687.79671164772719 -771.01206093750011 -764.76189615885426
leaf_weight=37 25 32 21 37 21 38 29 22 21 24 21 27 27 25 30 22 25 36
leaf_count=37 25 32 21 37 21 38 29 22 21 24 21 27 27 25 30 22 25 36
internal_value=0 1053.02 -463.794 -188.87 681.727 515.746 38.0719 1774.97 930.698 -695.235 -340.164 -387.515 -720.191 -685.077 -295.598 -739.983 -753.029 -745.893
internal_weight=0 159 361 165 105 63 66 54 42 196 99 48 172 62 51 110 88 63
internal_count=520 159 361 165 105 63 66 54 42 196 99 48 172 62 51 110 88 63
is_linear=0
shrinkage=0.01


Tree=9
num_leaves=19
num_cat=0
split_feature=10 10 10 10 10 0 0 0 0 10 10 10 0 10 10 3 10 0
split_gain=2.48905e+12 4.17723e+11 2.25129e+11 5.55253e+10 4.26892e+10 2.1711e+10 1.99818e+10 1.772e+10 1.37951e+10 8.57398e+09 2.04756e+09 4.37048e+09 1.17155e+09 2.74739e+09 7.34886e+08 7.3402e+08 1.10683e+08 2.93122e+08
threshold=147822.00000000003 223136.90625000003 66698.000000000015 98664.402343750015 179372.60156250003 7199.5000000000009 7218.5000000000009 7218.5000000000009 7233.0000000000009 60013.199218750007 80398.597656250015 74542.703125000015 7235.0000000000009 51446.800781250007 88131.097656250015 1.0000000180025095e-35 53222.898437500007 7242.5000000000009
decision_type=2 2 2 2 2 2 2 2 2 2 2 2 2 2 2 2 2 2
left_child=2 4 9 10 5 -2 -5 -6 -3 12 11 -4 13 -1 -12 16 17 -14
right_child=1 8 3 6 7 -7 -8 -9 -10 -11 14 -13 15 -15 -16 -17 -18 -19
leaf_value=-732.94451752533791 706.82589123535161 1624.6917819213868 -288.21877014160157 191.7347459617821 1039.3801206752232 275.43944588797433 -158.84716679014011 686.69128771551721 1949.9836363636366 -511.22242390950527 -247.27132417224703 -479.06076354980468 -713.52683593749998 -597.24285314941415 -324.40159114583332 -680.91874289772727 -763.30191562499999 -757.11424316406249
leaf_weight=37 20 32 24 37 28 28 29 29 22 24 21 24 27 25 30 22 25 36
leaf_count=37 20 32 24 37 28 28 29 29 22 24 21 24 27 25 30 22 25 36
internal_value=0 1042.49 -459.156 -186.981 674.91 455.184 37.6912 859.942 1757.22 -688.283 -336.762 -383.64 -712.989 -678.226 -292.642 -732.583 -745.499 -738.434
internal_weight=0 159 361 165 105 48 66 57 54 196 99 48 172 62 51 110 88 63
internal_count=520 159 361 165 105 48 66 57 54 196 99 48 172 62 51 110 88 63
is_linear=0
shrinkage=0.01


Tree=10
num_leaves=19
num_cat=0
split_feature=10 10 10 10 10 0 0 0 0 10 10 10 0 10 10 3 10 0
split_gain=2.43952e+12 4.0941e+11 2.20649e+11 5.44203e+10 4.18803e+10 3.18984e+10 1.95842e+10 1.35206e+10 9.81745e+09 8.40335e+09 2.00682e+09 4.28902e+09 1.14824e+09 2.69272e+09 7.20262e+08 7.19414e+08 1.0848e+08 2.87289e+08
threshold=147822.00000000003 223136.90625000003 66698.000000000015 98664.402343750015 186981.39843750003 7199.5000000000009 7218.5000000000009 7233.0000000000009 7233.0000000000009 60013.199218750007 80398.597656250015 73877.601562500015 7235.0000000000009 51446.800781250007 88131.097656250015 1.0000000180025095e-35 53222.898437500007 7242.5000000000009
decision_type=2 2 2 2 2 2 2 2 2 2 2 2 2 2 2 2 2 2
left_child=2 4 9 10 5 -2 -5 -3 -6 12 11 -4 13 -1 -12 16 17 -14
right_child=1 7 3 6 8 -7 -8 -9 -10 -11 14 -13 15 -15 -16 -17 -18 -19
leaf_value=-725.61506281672291 782.51278730468755 1608.4448883056641 -272.61925757998512 189.8173977248733 1065.6487686011906 322.58168656198603 -157.25868972252155 1930.4838068181818 759.87190848214289 -506.11020548502603 -244.79861711774552 -463.16879123263891 -706.39157986111115 -591.27041655273445 -321.15756974283852 -674.10957208806826 -755.66893437499994 -749.54314344618058
leaf_weight=37 25 32 21 37 21 38 29 22 21 24 21 27 27 25 30 22 25 36
leaf_count=37 25 32 21 37 21 38 29 22 21 24 21 27 27 25 30 22 25 36
internal_value=0 1032.06 -454.564 -185.111 668.161 505.094 37.3143 1739.65 912.76 -681.4 -333.395 -379.803 -705.859 -671.444 -289.716 -725.257 -738.044 -731.05
internal_weight=0 159 361 165 105 63 66 54 42 196 99 48 172 62 51 110 88 63
internal_count=520 159 361 165 105 63 66 54 42 196 99 48 172 62 51 110 88 63
is_linear=0
shrinkage=0.01


Tree=11
num_leaves=20
num_cat=0
split_feature=10 10 10 10 10 0 0 0 0 10 10 10 0 1 10 0 10 10 10
split_gain=2.39097e+12 4.01263e+11 2.16258e+11 5.33373e+10 4.12496e+10 2.08231e+10 1.91944e+10 1.70478e+10 1.32515e+10 8.23613e+09 1.96688e+09 4.20824e+09 1.12658e+09 1.71433e+09 2.25518e+09 1.61078e+09 1.43021e+09 7.05929e+08 4.09837e+08
threshold=147822.00000000003 223136.90625000003 66698.000000000015 98664.402343750015 179372.60156250003 7199.5000000000009 7218.5000000000009 7218.5000000000009 7233.0000000000009 60013.199218750007 80398.597656250015 74542.703125000015 7242.5000000000009 1.0000000180025095e-35 43709.699218750007 7185.5000000000009 53535.201171875007 88131.097656250015 46269.398437500007
decision_type=2 2 2 2 2 2 2 2 2 2 2 2 2 2 2 2 2 2 2
left_child=2 4 9 10 5 -2 -5 -6 -3 12 11 -4 13 14 -1 -16 -17 -12 -14
right_child=1 8 3 6 7 -7 -8 -9 -10 -11 17 -13 18 -15 15 16 -18 -19 -20
leaf_value=-778.66441550925924 691.93250024414067 1592.3604843139649 -282.3721962483724 187.91923290355786 1019.3661760602679 269.45922938755581 -155.68610997693293 673.43197354020742 1911.1789488636366 -501.04908691406251 -242.35062220982141 -469.63846964518228 -702.1676093750001 -608.27357343749998 -732.50042067307686 -573.99343587239582 -690.70256324404761 -317.9460037434896 -759.87312744140627
leaf_weight=27 20 32 24 37 28 28 29 29 22 24 21 24 20 25 26 21 21 30 32
leaf_count=27 20 32 24 37 28 28 29 29 22 24 21 24 20 25 26 21 21 30 32
internal_value=0 1021.74 -450.019 -183.26 661.479 445.49 36.9411 843.365 1722.25 -674.586 -330.061 -376.005 -698.801 -681.953 -701.343 -670.642 -632.348 -286.818 -737.679
internal_weight=0 159 361 165 105 48 66 57 54 196 99 48 172 120 95 68 42 51 52
internal_count=520 159 361 165 105 48 66 57 54 196 99 48 172 120 95 68 42 51 52
is_linear=0
shrinkage=0.01


Tree=12
num_leaves=19
num_cat=0
split_feature=10 10 10 10 10 0 0 0 0 10 10 10 0 10 3 10 10 0
split_gain=2.34339e+12 3.93278e+11 2.11955e+11 5.22759e+10 4.04287e+10 2.04087e+10 1.88125e+10 1.67085e+10 1.29878e+10 8.07223e+09 1.92774e+09 4.1298e+09 1.11932e+09 2.63936e+09 7.11793e+08 6.91881e+08 1.0862e+08 2.73755e+08
threshold=147822.00000000003 223136.90625000003 66698.000000000015 98664.402343750015 179372.60156250003 7199.5000000000009 7218.5000000000009 7218.5000000000009 7233.0000000000009 60013.199218750007 80398.597656250015 73877.601562500015 7235.0000000000009 51446.800781250007 1.0000000180025095e-35 88131.097656250015 53222.898437500007 7242.5000000000009
decision_type=2 2 2 2 2 2 2 2 2 2 2 2 2 2 2 2 2 2
left_child=2 4 9 10 5 -2 -5 -6 -3 12 11 -4 13 -1 16 -12 17 -14
right_child=1 8 3 6 7 -7 -8 -9 -10 -11 15 -13 14 -15 -16 -17 -18 -19
leaf_value=-711.46513513513526 685.01317556762694 1576.4368948364258 -267.06933989025299 186.04003572206238 1009.1725397600446 266.76463239397322 -154.12924232219828 666.69766071188042 1892.0671164772727 -496.03859863281252 -239.92712565104168 -454.04877423321761 -692.61460503472222 -578.4581153320313 -660.08880681818175 -314.7665476074219 -741.32002187499995 -734.73747992621531
leaf_weight=37 20 32 21 37 28 28 29 29 22 24 21 27 27 25 22 30 25 36
leaf_count=37 20 32 21 37 28 28 29 29 22 24 21 27 27 25 22 30 25 36
internal_value=0 1011.52 -445.519 -181.427 654.864 441.035 36.5717 834.931 1705.03 -667.84 -326.76 -372.245 -691.813 -657.833 -710.965 -283.95 -723.683 -716.685
internal_weight=0 159 361 165 105 48 66 57 54 196 99 48 172 62 110 51 88 63
internal_count=520 159 361 165 105 48 66 57 54 196 99 48 172 62 110 51 88 63
is_linear=0
shrinkage=0.01


Tree=13
num_leaves=19
num_cat=0
split_feature=10 10 10 10 10 0 0 0 0 10 10 10 0 10 3 10 10 0
split_gain=2.29676e+12 3.85451e+11 2.07737e+11 5.12356e+10 3.98089e+10 3.02783e+10 1.84381e+10 1.27294e+10 9.18943e+09 7.91159e+09 1.88938e+09 4.05202e+09 1.09705e+09 2.58684e+09 6.97629e+08 6.78112e+08 1.06459e+08 2.68307e+08
threshold=147822.00000000003 223136.90625000003 66698.000000000015 98664.402343750015 186981.39843750003 7199.5000000000009 7218.5000000000009 7233.0000000000009 7233.0000000000009 60013.199218750007 80398.597656250015 74542.703125000015 7235.0000000000009 51446.800781250007 1.0000000180025095e-35 88131.097656250015 53222.898437500007 7242.5000000000009
decision_type=2 2 2 2 2 2 2 2 2 2 2 2 2 2 2 2 2 2
left_child=2 4 9 10 5 -2 -5 -3 -6 12 11 -4 13 -1 16 -12 17 -14
right_child=1 7 3 6 8 -7 -8 -9 -10 -11 15 -13 14 -15 -16 -17 -18 -19
leaf_value=-704.35045924831081 759.6150250396729 1560.6725201416016 -276.64405375162761 184.17963717898809 1034.7068903459822 311.51575962267424 -152.5879537227236 1873.1464772727275 738.87190476190472 -491.07822428385413 -237.52784760974706 -460.40159505208339 -685.6884432870371 -572.67352460937502 -653.48790482954541 -311.61886385091151 -733.90681874999996 -727.39010145399311
leaf_weight=37 25 32 24 37 21 38 29 22 21 24 21 24 27 25 22 30 25 36
leaf_count=37 25 32 24 37 21 38 29 22 21 24 21 24 27 25 22 30 25 36
internal_value=0 1001.41 -441.063 -179.613 648.316 489.333 36.206 1687.98 886.789 -661.162 -323.492 -368.523 -684.894 -651.255 -703.855 -281.111 -716.447 -709.518
internal_weight=0 159 361 165 105 63 66 54 42 196 99 48 172 62 110 51 88 63
internal_count=520 159 361 165 105 63 66 54 42 196 99 48 172 62 110 51 88 63
is_linear=0
shrinkage=0.01


Tree=14
num_leaves=20
num_cat=0
split_feature=10 10 10 10 10 0 0 0 0 10 10 10 0 1 10 0 10 10 10
split_gain=2.25105e+12 3.77781e+11 2.03603e+11 5.02161e+10 3.90643e+10 1.9572e+10 1.80712e+10 1.60751e+10 1.2476e+10 7.75415e+09 1.85178e+09 3.97651e+09 1.0762e+09 1.68487e+09 2.19232e+09 1.61883e+09 1.38951e+09 6.64618e+08 4.06616e+08
threshold=147822.00000000003 223136.90625000003 66698.000000000015 98664.402343750015 179372.60156250003 7199.5000000000009 7218.5000000000009 7218.5000000000009 7233.0000000000009 60013.199218750007 80398.597656250015 73877.601562500015 7242.5000000000009 1.0000000180025095e-35 43709.699218750007 7185.5000000000009 53535.201171875007 88131.097656250015 46269.398437500007
decision_type=2 2 2 2 2 2 2 2 2 2 2 2 2 2 2 2 2 2 2
left_child=2 4 9 10 5 -2 -5 -6 -3 12 11 -4 13 14 -1 -16 -17 -12 -14
right_child=1 8 3 6 7 -7 -8 -9 -10 -11 17 -13 18 -15 15 16 -18 -19 -20
leaf_value=-757.03780671296295 670.5668907775879 1545.0657963562012 -261.63220052083335 182.33784044884345 989.74152239118314 260.98182745797294 -151.0620834876751 653.82086398683748 1854.4150568181817 -486.16742675781251 -235.15257114955358 -445.10846173321761 -680.67320019531257 -588.5353859375 -712.54429161658652 -554.62342099144348 -669.66021577380945 -308.50268497721356 -738.15147949218749
leaf_weight=27 20 32 21 37 28 28 29 29 22 24 21 27 20 25 26 21 21 30 32
leaf_count=27 20 32 21 37 28 28 29 29 22 24 21 27 20 25 26 21 21 30 32
internal_value=0 991.394 -436.653 -177.817 641.832 431.642 35.8439 818.835 1671.1 -654.55 -320.257 -364.838 -678.045 -661.579 -680.801 -650.531 -612.142 -278.3 -716.044
internal_weight=0 159 361 165 105 48 66 57 54 196 99 48 172 120 95 68 42 51 52
internal_count=520 159 361 165 105 48 66 57 54 196 99 48 172 120 95 68 42 51 52
is_linear=0
shrinkage=0.01


Tree=15
num_leaves=19
num_cat=0
split_feature=10 10 10 10 10 0 0 0 0 10 10 10 0 10 3 10 10 0
split_gain=2.20626e+12 3.70263e+11 1.99551e+11 4.92167e+10 3.84242e+10 2.92062e+10 1.77116e+10 1.22278e+10 8.80114e+09 7.59984e+09 1.81493e+09 3.9016e+09 1.06967e+09 2.5357e+09 6.90275e+08 6.51392e+08 1.06591e+08 2.55563e+08
threshold=147822.00000000003 223136.90625000003 66698.000000000015 98664.402343750015 186981.39843750003 7199.5000000000009 7218.5000000000009 7233.0000000000009 7233.0000000000009 60013.199218750007 80398.597656250015 74542.703125000015 7235.0000000000009 51446.800781250007 1.0000000180025095e-35 88131.097656250015 53222.898437500007 7242.5000000000009
decision_type=2 2 2 2 2 2 2 2 2 2 2 2 2 2 2 2 2 2
left_child=2 4 9 10 5 -2 -5 -3 -6 12 11 -4 13 -1 16 -12 17 -14
right_child=1 7 3 6 8 -7 -8 -9 -10 -11 15 -13 14 -15 -16 -17 -18 -19
leaf_value=-690.61615709459454 744.67484995117195 1529.6150579833984 -271.03194641113282 180.51446313806483 1014.4624011811757 304.58020380923625 -149.55145945581896 1835.8708522727275 724.94498279389882 -481.30575561523438 -232.80104364304316 -451.3464880371094 -672.32290509259258 -560.24715976562493 -639.88656249999997 -305.41765112304688 -719.98364843749994 -713.02209255642356
leaf_weight=37 25 32 24 37 21 38 29 22 21 24 21 24 27 25 22 30 25 36
leaf_count=37 25 32 24 37 21 38 29 22 21 24 21 24 27 25 22 30 25 36
internal_value=0 981.48 -432.286 -176.039 635.414 479.221 35.4855 1654.39 869.704 -648.005 -317.055 -361.189 -671.265 -638.048 -689.987 -275.517 -702.513 -695.58
internal_weight=0 159 361 165 105 63 66 54 42 196 99 48 172 62 110 51 88 63
internal_count=520 159 361 165 105 63 66 54 42 196 99 48 172 62 110 51 88 63
is_linear=0
shrinkage=0.01


Tree=16
num_leaves=19
num_cat=0
split_feature=10 10 10 10 10 0 0 0 0 10 10 10 0 10 3 10 10 0
split_gain=2.16235e+12 3.62895e+11 1.9558e+11 4.82373e+10 3.77462e+10 1.87684e+10 1.73591e+10 1.54661e+10 1.19844e+10 7.44861e+09 1.77881e+09 3.8289e+09 1.04838e+09 2.48524e+09 6.76539e+08 6.38429e+08 1.0447e+08 2.50477e+08
threshold=147822.00000000003 223136.90625000003 66698.000000000015 98664.402343750015 179372.60156250003 7199.5000000000009 7218.5000000000009 7218.5000000000009 7233.0000000000009 60013.199218750007 80398.597656250015 73877.601562500015 7235.0000000000009 51446.800781250007 1.0000000180025095e-35 88131.097656250015 53222.898437500007 7242.5000000000009
decision_type=2 2 2 2 2 2 2 2 2 2 2 2 2 2 2 2 2 2
left_child=2 4 9 10 5 -2 -5 -6 -3 12 11 -4 13 -1 16 -12 17 -14
right_child=1 8 3 6 7 -7 -8 -9 -10 -11 15 -13 14 -15 -16 -17 -18 -19
leaf_value=-683.70998785895267 656.41447741699221 1514.3189503479005 -256.30555989583331 178.70932132205451 970.68829589843756 255.32621710641044 -148.05594713934536 641.19283135775868 1817.5122265625 -476.49270792643227 -230.47303501674108 -436.34426106770837 -665.59969256365741 -554.64470585937499 -633.48768288352278 -302.36347294108072 -712.78382968749997 -705.89186360677081
leaf_weight=37 20 32 21 37 28 28 29 29 22 24 21 27 27 25 22 30 25 36
leaf_count=37 20 32 21 37 28 28 29 29 22 24 21 27 27 25 22 30 25 36
internal_value=0 971.665 -427.963 -174.278 629.06 422.446 35.1306 803.05 1637.84 -641.525 -313.884 -357.577 -664.552 -631.668 -683.087 -272.762 -695.487 -688.624
internal_weight=0 159 361 165 105 48 66 57 54 196 99 48 172 62 110 51 88 63
internal_count=520 159 361 165 105 48 66 57 54 196 99 48 172 62 110 51 88 63
is_linear=0
shrinkage=0.01


Tree=17
num_leaves=20
num_cat=0
split_feature=10 10 10 10 10 0 0 0 0 10 10 10 0 1 10 0 10 10 10
split_gain=2.11932e+12 3.55673e+11 1.91688e+11 4.72774e+10 3.70873e+10 2.81734e+10 1.70137e+10 1.1746e+10 8.42881e+09 7.30038e+09 1.74341e+09 3.75676e+09 1.02831e+09 1.65587e+09 2.13132e+09 1.62606e+09 1.35005e+09 6.25724e+08 4.03326e+08
threshold=147822.00000000003 223136.90625000003 66698.000000000015 98664.402343750015 186981.39843750003 7199.5000000000009 7218.5000000000009 7233.0000000000009 7233.0000000000009 60013.199218750007 80398.597656250015 74542.703125000015 7242.5000000000009 1.0000000180025095e-35 43709.699218750007 7185.5000000000009 53535.201171875007 88131.097656250015 46269.398437500007
decision_type=2 2 2 2 2 2 2 2 2 2 2 2 2 2 2 2 2 2 2
left_child=2 4 9 10 5 -2 -5 -3 -6 12 11 -4 13 14 -1 -16 -17 -12 -14
right_child=1 7 3 6 8 -7 -8 -9 -10 -11 17 -13 18 -15 15 16 -18 -19 -20
leaf_value=-736.03550925925924 730.03539697265637 1499.175793991089 -265.53352172851561 176.92222321381439 994.61086263020832 297.79228528876052 -146.57537648168105 1799.3370561079544 711.28360630580357 -471.72778035481775 -228.16830554780506 -442.46956787109377 -659.82287011718756 -569.39856015625003 -693.17230393629814 -535.85050246465778 -649.24183407738099 -299.33983870188399 -717.06814575195312
leaf_weight=27 25 32 24 37 21 38 29 22 21 24 21 24 20 25 26 21 21 30 32
leaf_count=27 25 32 24 37 21 38 29 22 21 24 21 24 20 25 26 21 21 30 32
internal_value=0 961.949 -423.684 -172.536 622.769 469.317 34.7793 1621.46 852.947 -635.109 -310.745 -354.002 -657.907 -641.811 -660.867 -631.021 -592.546 -270.034 -695.051
internal_weight=0 159 361 165 105 63 66 54 42 196 99 48 172 120 95 68 42 51 52
internal_count=520 159 361 165 105 63 66 54 42 196 99 48 172 120 95 68 42 51 52
is_linear=0
shrinkage=0.01


Tree=18
num_leaves=19
num_cat=0
split_feature=10 10 10 10 10 0 0 0 0 10 10 10 0 10 3 10 10 0
split_gain=2.07754e+12 3.89212e+11 1.55232e+11 4.84062e+10 3.12515e+10 2.9247e+10 1.48804e+10 1.15122e+10 1.07223e+10 5.87203e+09 1.93123e+09 3.91241e+09 1.02245e+09 2.43623e+09 6.69442e+08 6.13272e+08 1.04597e+08 2.38476e+08
threshold=141885.29687500003 223136.90625000003 66228.500000000015 179372.60156250003 98664.402343750015 7199.5000000000009 7218.5000000000009 7233.0000000000009 7218.5000000000009 60013.199218750007 80398.597656250015 72784.000000000015 7235.0000000000009 51446.800781250007 1.0000000180025095e-35 88131.097656250015 53222.898437500007 7242.5000000000009
decision_type=2 2 2 2 2 2 2 2 2 2 2 2 2 2 2 2 2 2
left_child=2 3 9 5 10 -2 -5 -3 -6 12 11 -4 13 -1 16 -12 17 -14
right_child=1 7 4 6 8 -7 -8 -9 -10 -11 15 -13 14 -15 -16 -17 -18 -19
leaf_value=-670.37897962415548 651.03479939778651 1484.1839702606201 -249.67311453683035 952.00549298967633 122.44925569806782 200.36361320495607 628.80874402276402 1781.3436647727274 -159.56776493952825 -474.19495163690476 -225.88662551153274 -427.63920019531253 -652.63334997106483 -542.59264531250005 -620.29321200284085 -296.34644156901044 -699.27378750000003 -691.94849907769094
leaf_weight=37 24 32 21 28 28 36 29 22 26 21 21 30 27 25 22 30 25 36
leaf_count=37 24 32 21 28 28 36 29 22 26 21 21 30 27 25 22 30 25 36
internal_value=0 903 -442.444 578.885 -207.862 380.632 787.572 1605.25 -13.3367 -632.054 -310.846 -354.359 -651.328 -618.852 -669.632 -267.334 -681.967 -675.099
internal_weight=0 171 349 117 156 60 57 54 54 193 102 51 172 62 110 51 88 63
internal_count=520 171 349 117 156 60 57 54 54 193 102 51 172 62 110 51 88 63
is_linear=0
shrinkage=0.01


Tree=19
num_leaves=19
num_cat=0
split_feature=10 10 10 10 10 0 0 0 0 10 5 10 10 1 10 0 0 10
split_gain=2.0362e+12 3.81467e+11 1.5215e+11 4.74429e+10 2.96511e+10 2.8665e+10 1.45843e+10 1.12831e+10 1.05089e+10 6.99667e+09 1.69531e+09 1.14545e+09 1.03736e+09 1.00222e+09 8.06775e+08 1.06008e+09 1.41389e+09 1.04318e+09
threshold=141885.29687500003 223136.90625000003 66698.000000000015 179372.60156250003 98664.402343750015 7199.5000000000009 7218.5000000000009 7233.0000000000009 7218.5000000000009 60013.199218750007 1.0000000180025095e-35 80398.597656250015 90191.000000000015 1.0000000180025095e-35 43254.500000000007 7242.5000000000009 7185.5000000000009 52623.000000000007
decision_type=2 2 2 2 2 2 2 2 2 2 2 2 2 2 2 2 2 2
left_child=2 3 9 5 10 -2 -5 -3 -6 13 11 -4 -13 14 -1 16 -16 -18
right_child=1 7 4 6 8 -7 -8 -9 -10 -11 -12 12 -14 -15 15 -17 17 -19
leaf_value=-706.34385127314818 644.52443562825522 1469.3422049713135 -324.01719166475186 942.48544651576447 121.22475511823383 198.35998141818578 622.52066035829739 1763.5302272727274 -157.97209284855771 -462.54921061197916 -377.66407592773436 -196.42572207496281 -297.05655664062499 -598.70586280616556 -678.86200376157399 -687.75070081208878 -533.71284619140624 -632.46247367527178
leaf_weight=27 24 32 34 28 28 36 29 22 26 24 24 21 20 37 27 38 20 23
leaf_count=27 24 32 34 28 28 36 29 22 26 24 24 21 20 37 27 38 20 23
internal_value=0 893.97 -438.02 573.096 -201.697 376.826 779.696 1589.2 -13.2034 -622.496 -304.511 -281.102 -245.514 -644.815 -657.452 -645.229 -622.145 -586.532
internal_weight=0 171 349 117 153 60 57 54 54 196 99 75 41 172 135 108 70 43
internal_count=520 171 349 117 153 60 57 54 54 196 99 75 41 172 135 108 70 43
is_linear=0
shrinkage=0.01


Tree=20
num_leaves=19
num_cat=0
split_feature=10 10 10 10 10 0 0 0 0 10 5 10 10 0 10 3 10 0
split_gain=1.99595e+12 3.347e+11 1.80397e+11 4.44003e+10 3.51816e+10 2.66427e+10 1.60339e+10 1.10586e+10 7.88657e+09 6.85744e+09 1.66158e+09 1.12266e+09 1.01671e+09 9.99342e+08 2.39108e+09 6.59523e+08 1.04525e+08 2.29339e+08
threshold=147822.00000000003 223136.90625000003 66698.000000000015 98664.402343750015 186981.39843750003 7199.5000000000009 7218.5000000000009 7233.0000000000009 7233.0000000000009 60013.199218750007 1.0000000180025095e-35 80398.597656250015 90191.000000000015 7235.0000000000009 51446.800781250007 1.0000000180025095e-35 53222.898437500007 7242.5000000000009
decision_type=2 2 2 2 2 2 2 2 2 2 2 2 2 2 2 2 2 2
left_child=2 4 9 10 5 -2 -5 -3 -6 13 11 -4 -13 14 -1 16 17 -15
right_child=1 7 3 6 8 -7 -8 -9 -10 -11 -12 12 -14 15 -16 -17 -18 -19
leaf_value=-657.30686866554049 708.58158554687498 1454.6487716102599 -320.77701617072609 171.36956034892316 965.71987014043907 288.24492148951481 -142.67519590180495 1745.8949147727274 691.6574674479167 -457.92370768229165 -373.88743693033854 -194.46146432059152 -294.08597882080079 -639.80914496527782 -530.71021445312499 -607.4906782670455 -686.00672968750007 -678.36376166449656
leaf_weight=37 25 32 34 37 21 38 29 22 21 24 24 21 20 27 25 22 25 36
leaf_count=37 25 32 34 37 21 38 29 22 21 24 24 21 20 27 25 22 25 36
internal_value=0 933.53 -411.167 -167.527 604.503 455.045 33.3802 1573.3 828.689 -616.271 -301.466 -278.291 -243.059 -638.366 -606.26 -656.463 -668.706 -661.84
internal_weight=0 159 361 165 105 63 66 54 42 196 99 75 41 172 62 110 88 63
internal_count=520 159 361 165 105 63 66 54 42 196 99 75 41 172 62 110 88 63
is_linear=0
shrinkage=0.01


Tree=21
num_leaves=19
num_cat=0
split_feature=10 10 10 10 10 0 0 0 0 10 10 10 1 10 0 0 10 0
split_gain=1.95643e+12 3.66323e+11 1.4609e+11 4.57231e+10 2.93492e+10 2.76096e+10 1.40326e+10 1.08385e+10 1.00671e+10 5.51957e+09 1.82738e+09 3.84507e+09 9.84847e+08 7.8844e+08 1.02753e+09 1.40327e+09 1.01778e+09 6.11925e+08
threshold=141885.29687500003 223136.90625000003 66228.500000000015 179372.60156250003 98664.402343750015 7199.5000000000009 7218.5000000000009 7233.0000000000009 7218.5000000000009 60013.199218750007 80398.597656250015 72784.000000000015 1.0000000180025095e-35 43254.500000000007 7242.5000000000009 7185.5000000000009 52623.000000000007 7218.5000000000009
decision_type=2 2 2 2 2 2 2 2 2 2 2 2 2 2 2 2 2 2
left_child=2 3 9 5 10 -2 -5 -3 -6 12 11 -4 13 -1 15 -15 -17 -12
right_child=1 7 4 6 8 -7 -8 -9 -10 -11 17 -13 -14 14 -16 16 -18 -19
leaf_value=-692.84331235532397 631.88873697916665 1440.102232208252 -240.13127883184524 924.34649418422157 118.29881155831474 194.01535634994508 610.49173988079201 1728.4359943181819 -154.96561758188102 -460.24826264880954 -223.93398215332033 -416.55901009114586 -586.27534126900343 -666.20362774884256 -674.29073139391448 -522.04905664062494 -619.58879076086964 -293.22511023888222
leaf_weight=27 24 32 21 28 28 36 29 22 26 21 25 30 37 27 38 20 23 26
leaf_count=27 24 32 21 28 28 36 29 22 26 21 25 30 37 27 38 20 23 26
internal_value=0 876.285 -429.354 561.845 -201.785 369.165 764.666 1557.57 -13.273 -613.297 -301.586 -343.912 -631.983 -644.51 -632.427 -609.7 -574.221 -259.259
internal_weight=0 171 349 117 156 60 57 54 54 193 102 51 172 135 108 70 43 51
internal_count=520 171 349 117 156 60 57 54 54 193 102 51 172 135 108 70 43 51
is_linear=0
shrinkage=0.01


Tree=22
num_leaves=19
num_cat=0
split_feature=10 10 10 10 10 0 0 0 0 10 5 10 10 0 10 3 10 0
split_gain=1.91761e+12 3.21436e+11 1.73276e+11 4.25912e+10 3.39238e+10 2.56499e+10 1.54101e+10 1.06228e+10 7.55183e+09 6.57189e+09 1.62171e+09 1.07676e+09 9.9748e+08 9.76883e+08 2.34681e+09 6.4974e+08 1.04437e+08 2.20528e+08
threshold=147822.00000000003 223136.90625000003 66698.000000000015 98664.402343750015 186981.39843750003 7199.5000000000009 7218.5000000000009 7233.0000000000009 7233.0000000000009 60013.199218750007 1.0000000180025095e-35 80398.597656250015 90191.000000000015 7235.0000000000009 51446.800781250007 1.0000000180025095e-35 53222.898437500007 7242.5000000000009
decision_type=2 2 2 2 2 2 2 2 2 2 2 2 2 2 2 2 2 2
left_child=2 4 9 10 5 -2 -5 -3 -6 13 11 -4 -13 14 -1 16 17 -15
right_child=1 7 3 6 8 -7 -8 -9 -10 -11 -12 12 -14 15 -16 -17 -18 -19
leaf_value=-644.49148437500003 694.59197812500008 1425.7012676239015 -314.1301216394761 167.81531876847552 946.81918192545584 282.16113499290066 -140.05980367726295 1711.1516193181817 678.63597074962809 -449.01713053385413 -366.96412841796877 -189.88155691964286 -288.55933557128907 -627.24027199074078 -519.07219316406247 -594.94728160511363 -673.00030390625011 -665.04698025173616
leaf_weight=37 25 32 34 37 21 38 29 22 21 24 24 21 20 27 25 22 25 36
leaf_count=37 25 32 34 37 21 38 29 22 21 24 24 21 20 27 25 22 25 36
internal_value=0 915.027 -403.017 -164.235 592.586 445.824 32.5369 1542 812.728 -604.033 -295.417 -272.522 -238.017 -625.663 -593.919 -643.555 -655.707 -648.844
internal_weight=0 159 361 165 105 63 66 54 42 196 99 75 41 172 62 110 88 63
internal_count=520 159 361 165 105 63 66 54 42 196 99 75 41 172 62 110 88 63
is_linear=0
shrinkage=0.01


Tree=23
num_leaves=19
num_cat=0
split_feature=10 10 10 10 10 0 0 0 0 10 5 10 10 1 10 0 0 10
split_gain=1.87979e+12 3.51779e+11 1.40275e+11 4.40658e+10 2.72233e+10 2.65931e+10 1.35022e+10 1.04114e+10 9.64346e+09 6.4411e+09 1.58943e+09 1.05534e+09 9.7763e+08 9.67778e+08 7.705e+08 9.95994e+08 1.39264e+09 9.9297e+08
threshold=141885.29687500003 223136.90625000003 66698.000000000015 179372.60156250003 98664.402343750015 7199.5000000000009 7218.5000000000009 7233.0000000000009 7218.5000000000009 60013.199218750007 1.0000000180025095e-35 80398.597656250015 90191.000000000015 1.0000000180025095e-35 43254.500000000007 7242.5000000000009 7185.5000000000009 52623.000000000007
decision_type=2 2 2 2 2 2 2 2 2 2 2 2 2 2 2 2 2 2
left_child=2 3 9 5 10 -2 -5 -3 -6 13 11 -4 -13 14 -1 16 -16 -18
right_child=1 7 4 6 8 -7 -8 -9 -10 -11 -12 12 -14 -15 15 -17 17 -19
leaf_value=-679.60479745370367 619.50187988281255 1411.4442369079591 -310.98882913028496 906.55998350960874 115.43767578125001 189.76425766838923 598.69417455212829 1694.040078125 -152.01537259615384 -444.52696777343749 -363.29449768066405 -187.98274405706496 -285.67373083496096 -574.0967037056588 -653.79346137152777 -661.09608552631573 -510.62762866210937 -606.97134680706517
leaf_weight=27 24 32 34 28 28 36 29 22 26 24 24 21 20 37 27 38 20 23
leaf_count=27 24 32 34 28 28 36 29 22 26 24 24 21 20 37 27 38 20 23
internal_value=0 858.95 -420.861 550.815 -193.947 361.659 749.927 1526.58 -13.336 -597.992 -292.463 -269.796 -235.637 -619.406 -631.824 -619.879 -597.505 -562.16
internal_weight=0 171 349 117 153 60 57 54 54 196 99 75 41 172 135 108 70 43
internal_count=520 171 349 117 153 60 57 54 54 196 99 75 41 172 135 108 70 43
is_linear=0
shrinkage=0.01


Tree=24
num_leaves=19
num_cat=0
split_feature=10 10 10 10 10 0 0 0 0 10 10 10 0 10 3 0 10 0
split_gain=1.84238e+12 3.44779e+11 1.37486e+11 4.31889e+10 2.75624e+10 2.60639e+10 1.32335e+10 1.02043e+10 9.45155e+09 5.18834e+09 1.72924e+09 3.77862e+09 9.55048e+08 2.30341e+09 6.40089e+08 6.05599e+08 1.04333e+08 2.12029e+08
threshold=141885.29687500003 223136.90625000003 66228.500000000015 179372.60156250003 98664.402343750015 7199.5000000000009 7218.5000000000009 7233.0000000000009 7218.5000000000009 60013.199218750007 80398.597656250015 72784.000000000015 7235.0000000000009 51446.800781250007 1.0000000180025095e-35 7218.5000000000009 53222.898437500007 7242.5000000000009
decision_type=2 2 2 2 2 2 2 2 2 2 2 2 2 2 2 2 2 2
left_child=2 3 9 5 10 -2 -5 -3 -6 12 11 -4 13 -1 16 -12 17 -14
right_child=1 7 4 6 8 -7 -8 -9 -10 -11 15 -13 14 -15 -16 -17 -18 -19
leaf_value=-631.92769636824323 613.30687011718749 1397.3297439575197 -230.89504185267859 897.49437779017853 114.28330060686383 187.86661200629339 592.70724685142784 1677.0997443181818 -150.49521681565506 -446.71035621279765 -216.28477261962891 -405.79177311197918 -614.92169270833335 -507.67364648437501 -582.65784090909085 -285.21681368314307 -660.2493062499999 -651.99274359809033
leaf_weight=37 24 32 21 28 28 36 29 22 26 21 25 30 27 25 22 26 25 36
leaf_count=37 24 32 21 28 28 36 29 22 26 21 25 30 27 25 22 26 25 36
internal_value=0 850.361 -416.652 545.307 -195.886 358.043 742.427 1511.31 -13.2027 -595.095 -292.601 -333.775 -613.212 -581.825 -630.903 -251.427 -642.964 -636.105
internal_weight=0 171 349 117 156 60 57 54 54 193 102 51 172 62 110 51 88 63
internal_count=520 171 349 117 156 60 57 54 54 193 102 51 172 62 110 51 88 63
is_linear=0
shrinkage=0.01


Tree=25
num_leaves=19
num_cat=0
split_feature=10 10 10 10 10 0 0 0 0 10 5 10 10 1 10 0 0 10
split_gain=1.80598e+12 3.02482e+11 1.63071e+11 3.9999e+10 3.21831e+10 2.4257e+10 1.45241e+10 1.00012e+10 7.06391e+09 6.17262e+09 1.55128e+09 1.01213e+09 9.59151e+08 9.51004e+08 7.5295e+08 9.65442e+08 1.38201e+09 9.68749e+08
threshold=147822.00000000003 223136.90625000003 66698.000000000015 98664.402343750015 186981.39843750003 7199.5000000000009 7218.5000000000009 7233.0000000000009 7233.0000000000009 60013.199218750007 1.0000000180025095e-35 80398.597656250015 90191.000000000015 1.0000000180025095e-35 43254.500000000007 7242.5000000000009 7185.5000000000009 52623.000000000007
decision_type=2 2 2 2 2 2 2 2 2 2 2 2 2 2 2 2 2 2
left_child=2 4 9 10 5 -2 -5 -3 -6 13 11 -4 -13 14 -1 16 -16 -18
right_child=1 7 3 6 8 -7 -8 -9 -10 -11 -12 12 -14 -15 15 -17 17 -19
leaf_value=-666.62320167824078 674.17547675781248 1383.3564572143555 -304.5411846564798 162.55565832189612 919.31048002697185 273.09926442999591 -136.33769556505928 1660.3286896306818 659.93561046781997 -435.88436157226562 -356.56984842936197 -183.54616928827195 -280.30948632812499 -562.16491197740709 -641.62654369212964 -648.16153808593754 -499.4436176757813 -594.60502717391307
leaf_weight=27 25 32 34 37 21 38 29 22 21 24 24 21 20 37 27 38 20 23
leaf_count=27 25 32 34 37 21 38 29 22 21 24 24 21 20 37 27 38 20 23
internal_value=0 887.993 -391.111 -159.466 575.203 432.256 31.2237 1496.2 789.623 -586.117 -286.593 -264.201 -230.748 -607.08 -619.39 -607.582 -585.553 -550.344
internal_weight=0 159 361 165 105 63 66 54 42 196 99 75 41 172 135 108 70 43
internal_count=520 159 361 165 105 63 66 54 42 196 99 75 41 172 135 108 70 43
is_linear=0
shrinkage=0.01


Tree=26
num_leaves=20
num_cat=0
split_feature=10 10 10 0 10 10 10 0 0 10 10 5 10 10 0 10 3 10 0
split_gain=1.77021e+12 3.31091e+11 1.32029e+11 4.16398e+10 3.29574e+10 2.55609e+10 1.43493e+10 9.80216e+09 9.05342e+09 6.04978e+09 1.91491e+09 1.52041e+09 9.91989e+08 9.40064e+08 9.33818e+08 2.26085e+09 6.30571e+08 1.04214e+08 2.03834e+08
threshold=141885.29687500003 223136.90625000003 66698.000000000015 7199.5000000000009 186981.39843750003 98664.402343750015 173307.20312500003 7233.0000000000009 7218.5000000000009 60013.199218750007 160707.39843750003 1.0000000180025095e-35 80398.597656250015 90191.000000000015 7235.0000000000009 51446.800781250007 1.0000000180025095e-35 53222.898437500007 7242.5000000000009
decision_type=2 2 2 2 2 2 2 2 2 2 2 2 2 2 2 2 2 2 2
left_child=2 3 9 6 10 11 -2 -3 -7 14 -5 12 -4 -14 15 -1 17 18 -16
right_child=1 7 5 4 -6 8 -8 -9 -10 -11 -12 -13 13 -15 16 -17 -18 -19 -20
leaf_value=-619.61059068834459 595.10866350446429 1369.5228778076173 -301.49577622357538 158.75603365811435 661.29060498986928 111.51490487234933 960.55933604847303 1643.7253941761364 -147.62687368539665 -431.52551900227866 287.91860326131183 -353.00415649414066 -181.71071085611982 -277.50639233398437 -602.84836588541668 -496.5097513671875 -570.6172336647727 -647.7487578125 -639.19594780815976
leaf_weight=37 21 32 34 22 28 28 22 22 26 24 24 24 21 20 27 25 22 25 36
leaf_count=37 21 32 34 22 28 28 22 22 26 24 24 24 21 20 27 25 22 25 36
internal_value=0 833.539 -408.41 534.602 390.795 -188.267 782.083 1481.24 -13.2571 -580.256 226.145 -283.727 -261.559 -228.44 -601.009 -569.973 -618.502 -630.474 -623.618
internal_weight=0 171 349 117 74 153 43 54 54 196 46 99 75 41 172 62 110 88 63
internal_count=520 171 349 117 74 153 43 54 54 196 46 99 75 41 172 62 110 88 63
is_linear=0
shrinkage=0.01


Tree=27
num_leaves=19
num_cat=0
split_feature=10 10 10 10 5 0 0 10 0 10 5 10 1 10 10 0 0 10
split_gain=1.73504e+12 2.90508e+11 1.56605e+11 3.83895e+10 3.17054e+10 4.66459e+10 1.39611e+10 1.16575e+10 9.6071e+09 5.92939e+09 1.49015e+09 9.72248e+08 9.34518e+08 9.21357e+08 7.35777e+08 9.35841e+08 1.37137e+09 9.45099e+08
threshold=147822.00000000003 223136.90625000003 66698.000000000015 98664.402343750015 1.0000000180025095e-35 7199.5000000000009 7218.5000000000009 186981.39843750003 7233.0000000000009 60013.199218750007 1.0000000180025095e-35 80398.597656250015 1.0000000180025095e-35 90191.000000000015 43254.500000000007 7242.5000000000009 7185.5000000000009 52623.000000000007
decision_type=2 2 2 2 2 2 2 2 2 2 2 2 2 2 2 2 2 2
left_child=2 4 9 10 5 -2 -5 -7 -3 12 11 -4 14 -13 -1 16 -16 -18
right_child=1 8 3 6 -6 7 -8 -9 -10 -11 -12 13 -14 -15 15 -17 17 -19
leaf_value=-653.89342013888893 762.44008316040038 1355.8276901245117 -298.48081428079047 159.22830975506756 874.68883124999991 137.83360630580358 -133.81499435950968 453.93697583007815 1627.2881818181818 -427.2102602132162 -349.47410380045574 -179.8936046200707 -550.4750122730153 -274.73134057617187 -629.69807219328698 -635.48197651110195 -488.49222021484377 -582.48487601902173
leaf_weight=27 32 32 34 37 25 28 29 20 22 24 24 21 37 20 27 38 20 23
leaf_count=27 32 32 34 37 25 28 29 20 22 24 24 21 37 20 27 38 20 23
internal_value=0 870.379 -383.352 -156.347 563.842 466.702 30.4669 269.543 1466.42 -574.454 -280.89 -258.943 -594.999 -226.156 -607.202 -595.529 -573.841 -538.767
internal_weight=0 159 361 165 105 80 66 48 54 196 99 75 172 41 135 108 70 43
internal_count=520 159 361 165 105 80 66 48 54 196 99 75 172 41 135 108 70 43
is_linear=0
shrinkage=0.01


Tree=28
num_leaves=19
num_cat=0
split_feature=10 10 10 10 10 0 0 0 0 10 5 10 1 10 10 0 0 10
split_gain=1.70087e+12 3.17946e+11 1.26754e+11 4.05955e+10 2.44959e+10 2.41208e+10 1.23003e+10 9.41591e+09 8.6717e+09 5.8114e+09 1.4605e+09 9.52901e+08 9.15922e+08 9.03021e+08 7.21135e+08 9.17218e+08 1.34408e+09 9.26291e+08
threshold=141885.29687500003 223136.90625000003 66698.000000000015 179372.60156250003 98664.402343750015 7199.5000000000009 7218.5000000000009 7233.0000000000009 7218.5000000000009 60013.199218750007 1.0000000180025095e-35 80398.597656250015 1.0000000180025095e-35 90191.000000000015 43254.500000000007 7242.5000000000009 7185.5000000000009 52623.000000000007
decision_type=2 2 2 2 2 2 2 2 2 2 2 2 2 2 2 2 2 2
left_child=2 3 9 5 10 -2 -5 -3 -6 12 11 -4 14 -13 -1 16 -16 -18
right_child=1 7 4 6 8 -7 -8 -9 -10 -11 -12 13 -14 -15 15 -17 17 -19
leaf_value=-647.35447916666669 588.11748428344731 1342.2694137573242 -295.49601059857537 864.71764901297433 108.80747144426618 178.84269348144531 570.87305950296343 1611.0152521306818 -144.81245380108174 -422.93815348307288 -345.97937215169276 -178.09466715494793 -544.9702597128379 -271.98401196289063 -623.40108145254624 -629.12717362253284 -483.60729833984379 -576.66003226902183
leaf_weight=27 24 32 34 28 28 36 29 22 26 24 24 21 37 20 27 38 20 23
leaf_count=27 24 32 34 28 28 36 29 22 26 24 24 21 37 20 27 38 20 23
internal_value=0 817.05 -400.331 524.107 -184.631 342.553 715.218 1451.76 -13.3058 -568.709 -278.081 -256.354 -589.049 -223.894 -601.13 -589.574 -568.102 -533.38
internal_weight=0 171 349 117 153 60 57 54 54 196 99 75 172 41 135 108 70 43
internal_count=520 171 349 117 153 60 57 54 54 196 99 75 172 41 135 108 70 43
is_linear=0
shrinkage=0.01


Tree=29
num_leaves=19
num_cat=0
split_feature=10 10 10 10 10 0 0 0 0 10 10 10 0 10 3 0 10 0
split_gain=1.66702e+12 3.11618e+11 1.2424e+11 3.97876e+10 2.48016e+10 2.36408e+10 1.20555e+10 9.22854e+09 8.49914e+09 4.6774e+09 1.5803e+09 3.72255e+09 9.11138e+08 2.22236e+09 6.24321e+08 6.04839e+08 1.06017e+08 1.9216e+08
threshold=141885.29687500003 223136.90625000003 66228.500000000015 179372.60156250003 98664.402343750015 7199.5000000000009 7218.5000000000009 7233.0000000000009 7218.5000000000009 60013.199218750007 80398.597656250015 72784.000000000015 7235.0000000000009 51446.800781250007 1.0000000180025095e-35 7218.5000000000009 53222.898437500007 7242.5000000000009
decision_type=2 2 2 2 2 2 2 2 2 2 2 2 2 2 2 2 2 2
left_child=2 3 9 5 10 -2 -5 -3 -6 12 11 -4 13 -1 16 -12 17 -14
right_child=1 7 4 6 8 -7 -8 -9 -10 -11 15 -13 14 -15 -16 -17 -18 -19
leaf_value=-601.71481946790539 582.23631149291998 1328.8467282104493 -215.45610305059523 856.07047412327358 107.71940586635044 177.05426666259766 565.16433029700977 1594.9051740056818 -143.36433255709136 -425.06766345796132 -203.72806132812502 -389.05034000651045 -585.26905164930554 -479.66651386718752 -552.7908291903409 -272.61680354191708 -629.773815625 -620.56045410156253
leaf_weight=37 24 32 21 28 28 36 29 22 26 21 25 30 27 25 22 26 25 36
leaf_count=37 24 32 21 28 28 36 29 22 26 21 25 30 27 25 22 26 25 36
internal_value=0 808.879 -396.328 518.866 -186.466 339.127 708.066 1437.24 -13.1728 -565.957 -278.209 -317.57 -583.159 -552.502 -600.438 -238.848 -612.35 -605.436
internal_weight=0 171 349 117 156 60 57 54 54 193 102 51 172 62 110 51 88 63
internal_count=520 171 349 117 156 60 57 54 54 193 102 51 172 62 110 51 88 63
is_linear=0
shrinkage=0.01


Tree=30
num_leaves=19
num_cat=0
split_feature=10 10 10 10 5 0 0 10 0 10 5 10 1 10 10 0 0 10
split_gain=1.63403e+12 2.73381e+11 1.47385e+11 3.6054e+10 3.11476e+10 4.47034e+10 1.31601e+10 1.09325e+10 9.04489e+09 5.5688e+09 1.42536e+09 9.1379e+08 9.00069e+08 8.85989e+08 7.04631e+08 8.89078e+08 1.33385e+09 9.03608e+08
threshold=147822.00000000003 223136.90625000003 66698.000000000015 98664.402343750015 1.0000000180025095e-35 7199.5000000000009 7218.5000000000009 186981.39843750003 7233.0000000000009 60013.199218750007 1.0000000180025095e-35 80398.597656250015 1.0000000180025095e-35 90191.000000000015 43254.500000000007 7242.5000000000009 7185.5000000000009 52623.000000000007
decision_type=2 2 2 2 2 2 2 2 2 2 2 2 2 2 2 2 2 2
left_child=2 4 9 10 5 -2 -5 -7 -3 12 11 -4 14 -13 -1 16 -16 -18
right_child=1 8 3 6 -6 7 -8 -9 -10 -11 -12 13 -14 -15 15 -17 17 -19
leaf_value=-634.99539568865737 740.5319824504852 1315.5582763671875 -289.36534352022062 154.25126666094806 855.39954023437508 130.45848641531808 -130.26135666419719 436.57535864257812 1578.9561115056817 -414.72012369791668 -339.57576070149742 -173.88278913225449 -533.63130331503385 -266.88246093750001 -611.82797309027785 -616.82162571957247 -472.99083789062496 -564.89713654891307
leaf_weight=27 32 32 34 37 25 28 29 20 22 24 24 21 37 20 27 38 20 23
leaf_count=27 32 32 34 37 25 28 29 20 22 24 24 21 37 20 27 38 20 23
internal_value=0 844.662 -372.026 -151.804 547.299 451.017 29.2381 258.007 1422.87 -557.416 -272.499 -251.035 -577.327 -219.248 -589.303 -577.88 -556.74 -522.15
internal_weight=0 159 361 165 105 80 66 48 54 196 99 75 172 41 135 108 70 43
internal_count=520 159 361 165 105 80 66 48 54 196 99 75 172 41 135 108 70 43
is_linear=0
shrinkage=0.01


Tree=31
num_leaves=19
num_cat=0
split_feature=10 10 10 10 10 0 0 0 0 10 5 10 0 10 10 3 10 0
split_gain=1.60172e+12 2.99246e+11 1.19303e+11 3.86768e+10 2.29994e+10 2.27288e+10 1.16282e+10 8.86489e+09 8.14041e+09 5.45799e+09 1.397e+09 8.95606e+08 8.91126e+08 2.18135e+09 8.68358e+08 6.14977e+08 1.05828e+08 1.84688e+08
threshold=141885.29687500003 223136.90625000003 66698.000000000015 179372.60156250003 98664.402343750015 7199.5000000000009 7218.5000000000009 7233.0000000000009 7218.5000000000009 60013.199218750007 1.0000000180025095e-35 80398.597656250015 7235.0000000000009 51446.800781250007 90191.000000000015 1.0000000180025095e-35 53222.898437500007 7242.5000000000009
decision_type=2 2 2 2 2 2 2 2 2 2 2 2 2 2 2 2 2 2
left_child=2 3 9 5 10 -2 -5 -3 -6 12 11 -4 13 -1 -13 16 17 -14
right_child=1 7 4 6 8 -7 -8 -9 -10 -11 -12 14 15 -15 -16 -17 -18 -19
leaf_value=-589.99229624155407 569.8421764564514 1302.4026834106446 -286.47168586282169 840.57793622698102 105.09969885689873 172.55238057454426 554.87488264412718 1563.1665056818183 -140.6280771108774 -410.57291361490883 -336.17999959309901 -172.14396100725449 -573.78604456018525 -469.07534941406254 -264.21363330078128 -541.35305575284087 -617.87310937500001 -608.38451348198782
leaf_weight=37 24 32 34 28 28 36 29 22 26 24 24 21 27 25 20 22 25 36
leaf_count=37 24 32 34 28 28 36 29 22 26 24 24 21 27 25 20 22 25 36
internal_value=0 792.878 -388.488 508.681 -179.223 331.468 695.22 1408.64 -13.2137 -551.842 -269.774 -248.524 -571.554 -541.235 -217.056 -588.642 -600.465 -593.557
internal_weight=0 171 349 117 153 60 57 54 54 196 99 75 172 62 41 110 88 63
internal_count=520 171 349 117 153 60 57 54 54 196 99 75 172 62 41 110 88 63
is_linear=0
shrinkage=0.01


Tree=32
num_leaves=19
num_cat=0
split_feature=10 10 10 10 5 0 10 0 10 0 10 5 10 1 10 0 0 10
split_gain=1.56989e+12 2.62548e+11 1.41533e+11 3.47622e+10 3.05631e+10 4.33282e+10 1.04799e+10 8.68849e+09 5.34937e+09 4.13078e+09 3.9008e+09 1.98866e+09 9.86481e+08 8.84489e+08 6.88486e+08 8.61814e+08 1.32361e+09 8.8146e+08
threshold=147822.00000000003 223136.90625000003 66698.000000000015 109037.50000000001 1.0000000180025095e-35 7199.5000000000009 186981.39843750003 7233.0000000000009 60013.199218750007 7218.5000000000009 97748.097656250015 1.0000000180025095e-35 80398.597656250015 1.0000000180025095e-35 43254.500000000007 7242.5000000000009 7185.5000000000009 52623.000000000007
decision_type=2 2 2 2 2 2 2 2 2 2 2 2 2 2 2 2 2 2
left_child=2 4 8 10 5 -2 -7 -3 13 -5 11 12 -4 14 -1 16 -16 -18
right_child=1 7 3 9 -6 6 -8 -9 -10 -11 -12 -13 -14 -15 15 -17 17 -19
leaf_value=-622.87598885995374 726.15917068481451 1289.3786376953126 -283.60696188534007 156.16912701198032 841.70229277343753 126.23399008614678 425.94659594726562 1547.5348597301136 -406.46717447916666 -31.997527465820312 -118.36007533482143 -352.29488303444606 -210.34294702148438 -522.52233118005699 -600.48152633101859 -604.75859850431743 -462.59537841796873 -553.36838654891301
leaf_weight=27 32 32 34 28 25 28 20 22 24 20 21 22 40 37 27 38 20 23
leaf_count=27 32 32 34 28 25 28 20 22 24 20 21 22 40 37 27 38 20 23
internal_value=0 827.918 -364.651 -148.846 536.506 441.132 251.114 1394.55 -546.323 77.7664 -241.815 -268.821 -244.005 -565.838 -577.71 -566.419 -545.605 -511.148
internal_weight=0 159 361 165 105 80 48 54 196 48 117 96 74 172 135 108 70 43
internal_count=520 159 361 165 105 80 48 54 196 48 117 96 74 172 135 108 70 43
is_linear=0
shrinkage=0.01


Tree=33
num_leaves=19
num_cat=0
split_feature=10 10 10 0 10 10 10 0 10 10 5 10 0 10 10 3 10 0
split_gain=1.5389e+12 2.87982e+11 1.14553e+11 3.61707e+10 2.27972e+10 1.94678e+10 1.33701e+10 7.89349e+09 4.30576e+09 1.60229e+09 1.47163e+09 9.23972e+08 8.71664e+08 2.14113e+09 8.51936e+08 6.05763e+08 1.05625e+08 1.77484e+08
threshold=141885.29687500003 215604.70312500003 66228.500000000015 7199.5000000000009 98664.402343750015 186981.39843750003 268351.20312500006 7218.5000000000009 60013.199218750007 160707.39843750003 1.0000000180025095e-35 80398.597656250015 7235.0000000000009 51446.800781250007 90191.000000000015 1.0000000180025095e-35 53222.898437500007 7242.5000000000009
decision_type=2 2 2 2 2 2 2 2 2 2 2 2 2 2 2 2 2 2
left_child=2 3 8 -2 10 9 -3 -6 12 -5 11 -4 13 -1 -13 16 17 -14
right_child=1 6 4 5 7 -7 -8 -9 -10 -11 -12 14 15 -15 -16 -17 -18 -19
leaf_value=-578.49977908572635 707.16457231570519 1188.3241558159723 -282.7580517578125 145.74071899414062 103.36942191532681 563.70402518894366 1482.7018504050927 -138.60287682166467 -408.49938220796133 263.89034011840823 -332.17757361778843 -168.31909348260791 -562.53165726273153 -458.7025341552735 -259.51405615234376 -530.14710049715916 -606.20595624999999 -596.44859795464413
leaf_weight=37 39 36 35 22 28 23 27 26 21 24 26 21 27 25 20 22 25 36
leaf_count=37 39 36 35 22 28 23 27 26 21 24 26 21 27 25 20 22 25 36
internal_value=0 777.175 -380.793 463.743 -179.279 326.157 1314.49 -13.1358 -543.676 207.384 -267.237 -245.02 -560.18 -530.194 -212.804 -577.081 -588.814 -581.913
internal_weight=0 171 349 108 156 69 63 54 193 46 102 76 172 62 41 110 88 63
internal_count=520 171 349 108 156 69 63 54 193 46 102 76 172 62 41 110 88 63
is_linear=0
shrinkage=0.01


Tree=34
num_leaves=19
num_cat=0
split_feature=10 10 10 10 5 0 0 0 10 0 10 5 10 1 10 0 0 10
split_gain=1.50836e+12 2.52531e+11 1.35906e+11 3.34217e+10 3.00081e+10 4.18569e+10 9.97466e+09 8.42554e+09 5.13497e+09 3.92216e+09 3.71849e+09 1.91727e+09 9.47982e+08 8.69178e+08 6.72692e+08 8.35399e+08 1.31337e+09 8.59837e+08
threshold=147822.00000000003 223136.90625000003 66698.000000000015 109037.50000000001 1.0000000180025095e-35 7199.5000000000009 7233.0000000000009 7233.0000000000009 60013.199218750007 7218.5000000000009 97748.097656250015 1.0000000180025095e-35 80398.597656250015 1.0000000180025095e-35 43254.500000000007 7242.5000000000009 7185.5000000000009 52623.000000000007
decision_type=2 2 2 2 2 2 2 2 2 2 2 2 2 2 2 2 2 2
left_child=2 4 8 10 5 -2 -7 -3 13 -5 11 12 -4 14 -1 16 -16 -18
right_child=1 7 3 9 -6 6 -8 -9 -10 -11 -12 -13 -14 -15 15 -17 17 -19
leaf_value=-610.9915422453704 711.37484207153318 1263.6816760253907 -277.94332469267005 152.63551229749407 828.14525800781257 111.86226985051083 401.17779640891337 1517.9015731534091 -398.43351562499998 -30.718048095703125 -116.58554361979166 -345.45016113281253 -206.12314913940432 -511.63869010306695 -589.35724971064815 -592.93332660875819 -452.41644726562504 -542.06914062500005
leaf_weight=27 32 32 34 28 25 26 22 22 24 20 21 22 40 37 27 38 20 23
leaf_count=27 32 32 34 28 25 26 22 22 24 20 21 22 40 37 27 38 20 23
internal_value=0 811.532 -357.434 -145.962 525.733 431.229 244.465 1367.25 -535.458 76.2382 -237.121 -263.489 -239.122 -554.578 -566.347 -555.185 -534.694 -500.37
internal_weight=0 159 361 165 105 80 48 54 196 48 117 96 74 172 135 108 70 43
internal_count=520 159 361 165 105 80 48 54 196 48 117 96 74 172 135 108 70 43
is_linear=0
shrinkage=0.01


Tree=35
num_leaves=19
num_cat=0
split_feature=10 10 10 0 10 10 10 0 10 10 5 10 0 10 10 10 0 10
split_gain=1.47855e+12 2.77114e+11 1.09999e+11 3.48835e+10 2.18694e+10 1.8879e+10 1.28295e+10 7.65489e+09 4.13277e+09 1.51563e+09 1.41164e+09 8.85443e+08 8.52735e+08 2.1017e+09 8.35811e+08 6.08405e+08 7.77895e+08 7.62792e+06
threshold=141885.29687500003 215604.70312500003 66228.500000000015 7199.5000000000009 98664.402343750015 186981.39843750003 268351.20312500006 7218.5000000000009 60013.199218750007 160707.39843750003 1.0000000180025095e-35 80398.597656250015 7235.0000000000009 51446.800781250007 90191.000000000015 44764.000000000007 7242.5000000000009 49505.699218750007
decision_type=2 2 2 2 2 2 2 2 2 2 2 2 2 2 2 2 2 2
left_child=2 3 8 -2 10 9 -3 -6 12 -5 11 -4 13 -1 -13 -14 -17 -18
right_child=1 6 4 5 7 -7 -8 -9 -10 -11 -12 14 15 -15 -16 16 17 -19
leaf_value=-567.23271721917229 693.37261042668263 1165.2722753906251 -277.11660246930802 142.28969582297586 101.67473056283647 553.13311146611761 1453.6373423032408 -136.6124402794471 -400.43005219959082 257.19981287638348 -325.53658691406253 -164.57467087518603 -524.51456615306711 -448.54367932128912 -254.90245410156251 -545.02726034628381 -610.19014423076919 -601.97565820312502
leaf_weight=37 39 36 35 22 28 23 27 26 21 24 26 21 27 25 20 37 26 20
leaf_count=37 39 36 35 22 28 23 27 26 21 24 26 21 27 25 20 37 26 20
internal_value=0 761.782 -373.251 454.322 -175.783 319.206 1288.86 -13.0561 -532.863 202.243 -261.933 -240.174 -549.032 -519.374 -208.637 -565.749 -579.162 -606.619
internal_weight=0 171 349 108 156 69 63 54 193 46 102 76 172 62 41 110 83 46
internal_count=520 171 349 108 156 69 63 54 193 46 102 76 172 62 41 110 83 46
is_linear=0
shrinkage=0.01


Tree=36
num_leaves=19
num_cat=0
split_feature=10 10 10 10 5 0 0 0 10 0 10 5 10 1 10 0 0 10
split_gain=1.44924e+12 2.42895e+11 1.30503e+11 3.21336e+10 2.94627e+10 4.0436e+10 9.63873e+09 8.17101e+09 4.92915e+09 3.723e+09 3.5444e+09 1.84851e+09 9.11007e+08 8.53362e+08 6.62073e+08 7.97264e+08 1.29783e+09 8.44777e+08
threshold=147822.00000000003 223136.90625000003 66698.000000000015 109037.50000000001 1.0000000180025095e-35 7199.5000000000009 7233.0000000000009 7233.0000000000009 60013.199218750007 7218.5000000000009 97748.097656250015 1.0000000180025095e-35 80398.597656250015 1.0000000180025095e-35 43254.500000000007 7242.5000000000009 7185.5000000000009 52623.000000000007
decision_type=2 2 2 2 2 2 2 2 2 2 2 2 2 2 2 2 2 2
left_child=2 4 8 10 5 -2 -7 -3 13 -5 11 12 -4 14 -1 16 -16 -18
right_child=1 7 3 9 -6 6 -8 -9 -10 -11 -12 -13 -14 -15 15 -17 17 -19
leaf_value=-599.49407624421303 696.88497070312496 1238.4909790039062 -272.39272209616269 149.17459666115897 814.82780722656241 107.61782771183894 392.01980327952998 1488.8415234375 -390.55867024739587 -29.463089416503909 -114.83853980654762 -338.74028342507103 -201.98711370849611 -500.99505999590895 -578.45073640046303 -581.00646985505762 -442.45993554687499 -531.32403108016308
leaf_weight=27 32 32 34 28 25 26 22 22 24 20 21 22 40 37 27 38 20 23
leaf_count=27 32 32 34 28 25 26 22 22 24 20 21 22 40 37 27 38 20 23
internal_value=0 795.47 -350.359 -143.134 515.176 421.535 237.969 1340.49 -524.809 74.7422 -232.519 -258.262 -234.336 -543.542 -555.203 -544.13 -524.112 -489.992
internal_weight=0 159 361 165 105 80 48 54 196 48 117 96 74 172 135 108 70 43
internal_count=520 159 361 165 105 80 48 54 196 48 117 96 74 172 135 108 70 43
is_linear=0
shrinkage=0.01


Tree=37
num_leaves=19
num_cat=0
split_feature=10 10 10 0 10 10 10 0 10 10 10 10 1 10 0 0 10 0
split_gain=1.42056e+12 2.66657e+11 1.05625e+11 3.36423e+10 2.09793e+10 1.83085e+10 1.23101e+10 7.42432e+09 3.96673e+09 1.43317e+09 1.35646e+09 3.66523e+09 8.3638e+08 6.48898e+08 7.81398e+08 1.272e+09 8.27966e+08 6.11607e+08
threshold=141885.29687500003 215604.70312500003 66228.500000000015 7199.5000000000009 98664.402343750015 186981.39843750003 268351.20312500006 7218.5000000000009 60013.199218750007 160707.39843750003 80398.597656250015 72784.000000000015 1.0000000180025095e-35 43254.500000000007 7242.5000000000009 7185.5000000000009 52623.000000000007 7218.5000000000009
decision_type=2 2 2 2 2 2 2 2 2 2 2 2 2 2 2 2 2 2
left_child=2 3 8 -2 10 9 -3 -6 12 -5 11 -4 13 -1 15 -15 -17 -12
right_child=1 6 4 5 7 -7 -8 -9 -10 -11 17 -13 -14 14 -16 16 -18 -19
leaf_value=-593.49914641203702 679.85032514523232 1142.6721880425348 -191.87652657645089 138.91872902610086 100.01484951019287 542.76572374426803 1425.1397656250001 -134.65613854041467 -392.52016357421877 250.65943359375001 -184.9511576171875 -364.12894807942706 -495.98511121595226 -572.66623553240743 -575.19639468544415 -438.03533154296878 -526.01080417798914 -254.22425668569713
leaf_weight=27 39 36 21 22 28 23 27 26 21 24 25 30 37 27 38 20 23 26
leaf_count=27 39 36 21 22 28 23 27 26 21 24 25 30 37 27 38 20 23 26
internal_value=0 746.695 -365.859 445.091 -172.356 312.401 1263.73 -12.9749 -522.266 197.218 -256.734 -293.201 -538.107 -549.651 -538.689 -518.871 -485.092 -220.267
internal_weight=0 171 349 108 156 69 63 54 193 46 102 51 172 135 108 70 43 51
internal_count=520 171 349 108 156 69 63 54 193 46 102 51 172 135 108 70 43 51
is_linear=0
shrinkage=0.01


Tree=38
num_leaves=19
num_cat=0
split_feature=10 10 10 10 5 0 0 0 10 0 10 5 10 0 10 10 0 10
split_gain=1.39244e+12 2.33627e+11 1.2534e+11 3.08898e+10 2.89267e+10 3.90638e+10 9.31409e+09 7.92462e+09 4.72279e+09 3.5329e+09 3.37106e+09 1.80376e+09 8.74557e+08 8.32945e+08 2.06617e+09 6.12944e+08 7.33472e+08 7.94489e+06
threshold=147822.00000000003 223136.90625000003 66698.000000000015 109037.50000000001 1.0000000180025095e-35 7199.5000000000009 7233.0000000000009 7233.0000000000009 60013.199218750007 7218.5000000000009 97748.097656250015 1.0000000180025095e-35 80398.597656250015 7235.0000000000009 51446.800781250007 44764.000000000007 7242.5000000000009 49505.699218750007
decision_type=2 2 2 2 2 2 2 2 2 2 2 2 2 2 2 2 2 2
left_child=2 4 8 10 5 -2 -7 -3 13 -5 11 12 -4 14 -1 -15 -17 -18
right_child=1 7 3 9 -6 6 -8 -9 -10 -11 -12 -13 -14 15 -16 16 17 -19
leaf_value=-550.8657482580237 682.68372451782227 1213.7966577148438 -266.73677842084101 145.78489996773857 801.74546582031257 103.48459510216345 383.05600538773973 1460.3436647727274 -382.97868947347007 -28.232250732421875 -113.21149367559524 -332.58187610973016 -197.75404562377932 -507.85908998842592 -433.18437329101567 -529.56427523226353 -593.01611929086539 -584.63270117187506
leaf_weight=37 32 32 34 28 25 26 22 22 24 20 21 22 40 27 25 37 26 20
leaf_count=37 32 32 34 28 25 26 22 22 24 20 21 22 40 27 25 37 26 20
internal_value=0 779.726 -343.425 -140.34 504.832 412.046 231.621 1314.24 -514.389 73.2778 -227.978 -253.083 -229.449 -532.726 -503.414 -549.247 -562.71 -589.371
internal_weight=0 159 361 165 105 80 48 54 196 48 117 96 74 172 62 110 83 46
internal_count=520 159 361 165 105 80 48 54 196 48 117 96 74 172 62 110 83 46
is_linear=0
shrinkage=0.01


Tree=39
num_leaves=19
num_cat=0
split_feature=10 10 10 0 10 10 10 0 10 10 5 0 0 1 10 0 0 10
split_gain=1.36485e+12 2.56596e+11 1.01444e+11 3.24455e+10 1.94731e+10 1.77556e+10 1.18111e+10 7.20148e+09 4.62881e+09 1.35474e+09 1.20274e+09 8.32598e+08 9.29179e+08 8.2118e+08 6.38779e+08 7.45456e+08 1.25716e+09 8.13423e+08
threshold=141885.29687500003 215604.70312500003 66698.000000000015 7199.5000000000009 98664.402343750015 186981.39843750003 268351.20312500006 7218.5000000000009 60013.199218750007 160707.39843750003 1.0000000180025095e-35 7235.0000000000009 7191.0000000000009 1.0000000180025095e-35 43254.500000000007 7242.5000000000009 7185.5000000000009 52623.000000000007
decision_type=2 2 2 2 2 2 2 2 2 2 2 2 2 2 2 2 2 2
left_child=2 3 8 -2 10 9 -3 -6 13 -5 11 12 -4 14 -1 16 -16 -18
right_child=1 6 4 5 7 -7 -8 -9 -10 -11 -12 -13 -14 -15 15 -17 17 -19
leaf_value=-582.34219545717588 666.59247821514418 1120.5149468315972 -200.01186828613282 135.62599712025036 98.389332297188901 532.59790936013928 1397.1980562789352 -132.73310396634616 -379.14889444986977 244.26598876953125 -310.58235778808597 -182.12952421875002 -288.00710552978518 -485.66129559491134 -562.08469473379625 -563.61901219418178 -428.38136035156248 -515.58075747282612
leaf_weight=27 39 36 20 22 28 23 27 26 24 24 24 25 30 37 27 38 20 23
leaf_count=27 39 36 20 22 28 23 27 26 24 24 24 25 30 37 27 38 20 23
internal_value=0 731.906 -358.613 436.046 -165.646 305.738 1239.09 -12.8918 -509.245 192.308 -248.966 -229.249 -252.809 -527.398 -538.837 -527.961 -508.604 -475.023
internal_weight=0 171 349 108 153 69 63 54 196 46 99 75 50 172 135 108 70 43
internal_count=520 171 349 108 153 69 63 54 196 46 99 75 50 172 135 108 70 43
is_linear=0
shrinkage=0.01


Tree=40
num_leaves=19
num_cat=0
split_feature=10 10 10 10 5 0 0 0 10 0 10 5 10 0 10 10 0 10
split_gain=1.33787e+12 2.24711e+11 1.20348e+11 2.97024e+10 2.84001e+10 3.77385e+10 9.00034e+09 7.68609e+09 4.5367e+09 3.35147e+09 3.21427e+09 1.73954e+09 8.67824e+08 8.15125e+08 2.02816e+09 6.08988e+08 7.05084e+08 8.01916e+06
threshold=147822.00000000003 223136.90625000003 66698.000000000015 109037.50000000001 1.0000000180025095e-35 7199.5000000000009 7233.0000000000009 7233.0000000000009 60013.199218750007 7218.5000000000009 97748.097656250015 1.0000000180025095e-35 80398.597656250015 7235.0000000000009 51446.800781250007 44764.000000000007 7242.5000000000009 49505.699218750007
decision_type=2 2 2 2 2 2 2 2 2 2 2 2 2 2 2 2 2 2
left_child=2 4 8 10 5 -2 -7 -3 13 -5 11 12 -4 14 -1 -15 -17 -18
right_child=1 7 3 9 -6 6 -8 -9 -10 -11 -12 -13 -14 15 -16 16 17 -19
leaf_value=-540.14130278716209 668.7653959655762 1189.5889013671874 -262.01393655215992 142.46494742257255 788.89380302734389 99.459991032527057 374.28241183194245 1432.3971147017044 -375.35740905761719 -27.025142883300784 -111.49925874255952 -326.15023448597304 -193.29723789978027 -497.21394549334491 -423.54729716796874 -519.38962732263519 -581.6896499399038 -573.26713476562497
leaf_weight=37 32 32 34 28 25 26 22 22 24 20 21 22 40 27 25 37 26 20
leaf_count=37 32 32 34 28 25 26 22 22 24 20 21 22 40 27 25 37 26 20
internal_value=0 764.293 -336.628 -137.628 494.695 402.758 225.42 1288.51 -504.153 71.8441 -223.565 -248.08 -224.87 -522.124 -493.128 -538.468 -551.888 -578.028
internal_weight=0 159 361 165 105 80 48 54 196 48 117 96 74 172 62 110 83 46
internal_count=520 159 361 165 105 80 48 54 196 48 117 96 74 172 62 110 83 46
is_linear=0
shrinkage=0.01


Tree=41
num_leaves=19
num_cat=0
split_feature=10 10 10 0 10 10 10 0 10 10 0 10 1 10 0 0 10 10
split_gain=1.31132e+12 2.46916e+11 9.74021e+10 3.12915e+10 1.86821e+10 1.72198e+10 1.13317e+10 6.98611e+09 4.44642e+09 1.28014e+09 1.1843e+09 1.02789e+09 8.06258e+08 6.28862e+08 7.11e+08 1.24252e+09 7.99104e+08 9.26377e+07
threshold=141885.29687500003 215604.70312500003 66698.000000000015 7199.5000000000009 98664.402343750015 186981.39843750003 268351.20312500006 7218.5000000000009 60013.199218750007 160707.39843750003 7235.0000000000009 80976.300781250015 1.0000000180025095e-35 43254.500000000007 7242.5000000000009 7185.5000000000009 52623.000000000007 90191.000000000015
decision_type=2 2 2 2 2 2 2 2 2 2 2 2 2 2 2 2 2 2
left_child=2 3 8 -2 10 9 -3 -6 12 -5 11 -4 13 -1 15 -15 -17 -13
right_child=1 6 4 5 7 -7 -8 -9 -10 -11 -12 17 -14 14 -16 16 -18 -19
leaf_value=-571.40355468749999 653.59388797075326 1098.7918722873264 -316.47923828124999 132.40974315296521 96.797111140659879 522.62570089588996 1369.8013990162037 -130.8431133563702 -371.60384053548182 238.01630981445314 -191.58349544270834 -221.80759117126465 -475.54700940931167 -551.71018699363424 -552.2702938360917 -418.92757617187499 -505.35607167119571 -251.17103915127842
leaf_weight=27 39 36 26 22 28 23 27 26 24 24 30 21 37 27 38 20 23 22
leaf_count=27 39 36 26 22 28 23 27 26 24 24 30 21 37 27 38 20 23 22
internal_value=0 717.41 -351.51 427.185 -162.427 299.214 1214.94 -12.8074 -499.111 187.509 -244.037 -266.843 -516.903 -528.238 -517.446 -498.542 -465.157 -236.831
internal_weight=0 171 349 108 153 69 63 54 196 46 99 69 172 135 108 70 43 43
internal_count=520 171 349 108 153 69 63 54 196 46 99 69 172 135 108 70 43 43
is_linear=0
shrinkage=0.01


Tree=42
num_leaves=19
num_cat=0
split_feature=10 10 10 10 5 0 0 0 10 0 10 5 10 0 10 3 10 0
split_gain=1.28543e+12 2.16135e+11 1.15555e+11 2.85613e+10 2.78827e+10 3.64587e+10 8.69714e+09 7.45517e+09 4.35793e+09 3.17835e+09 3.06086e+09 1.6994e+09 8.47507e+08 7.97812e+08 1.99089e+09 6.12836e+08 1.17233e+08 1.39882e+08
threshold=147822.00000000003 223136.90625000003 66698.000000000015 109037.50000000001 1.0000000180025095e-35 7199.5000000000009 7233.0000000000009 7233.0000000000009 60013.199218750007 7218.5000000000009 97748.097656250015 1.0000000180025095e-35 80398.597656250015 7235.0000000000009 51446.800781250007 1.0000000180025095e-35 53222.898437500007 7242.5000000000009
decision_type=2 2 2 2 2 2 2 2 2 2 2 2 2 2 2 2 2 2
left_child=2 4 8 10 5 -2 -7 -3 13 -5 11 12 -4 14 -1 16 17 -15
right_child=1 7 3 9 -6 6 -8 -9 -10 -11 -12 -13 -14 15 -16 -17 -18 -19
leaf_value=-529.62666147592904 655.12443344116207 1165.8581646728517 -256.92694752412683 139.2132999093192 776.26852119140619 95.541490971491896 365.69511985085228 1404.9910316051134 -367.88779876708986 -25.841344238281248 -109.87953311011904 -320.32535933061081 -189.01939369583133 -515.22798900462965 -414.10889843750005 -480.69614790482956 -558.02728671875002 -545.3385407172309
leaf_weight=37 32 32 34 28 25 26 22 22 24 20 21 22 40 27 25 22 25 36
leaf_count=37 32 32 34 28 25 26 22 22 24 20 21 22 40 27 25 22 25 36
internal_value=0 749.166 -329.965 -134.968 484.763 393.667 219.362 1263.28 -494.12 70.4405 -219.239 -243.161 -220.22 -511.734 -483.047 -527.903 -539.705 -532.434
internal_weight=0 159 361 165 105 80 48 54 196 48 117 96 74 172 62 110 88 63
internal_count=520 159 361 165 105 80 48 54 196 48 117 96 74 172 62 110 88 63
is_linear=0
shrinkage=0.01


Tree=43
num_leaves=19
num_cat=0
split_feature=10 10 10 0 10 10 10 0 10 10 10 10 1 10 0 0 10 0
split_gain=1.25989e+12 2.37602e+11 9.35363e+10 3.01788e+10 1.85164e+10 1.67007e+10 1.08711e+10 6.77795e+09 3.50194e+09 1.24238e+09 3.60846e+09 1.20921e+09 7.92363e+08 6.14349e+08 6.89264e+08 1.23302e+09 7.79292e+08 6.0481e+08
threshold=141885.29687500003 215604.70312500003 66228.500000000015 7199.5000000000009 98664.402343750015 186981.39843750003 268351.20312500006 7218.5000000000009 60013.199218750007 80398.597656250015 72784.000000000015 160707.39843750003 1.0000000180025095e-35 43254.500000000007 7242.5000000000009 7185.5000000000009 52623.000000000007 7218.5000000000009
decision_type=2 2 2 2 2 2 2 2 2 2 2 2 2 2 2 2 2 2
left_child=2 3 8 -2 9 11 -3 -6 12 10 -4 -5 13 -1 15 -15 -17 -11
right_child=1 6 4 5 7 -7 -8 -9 -10 17 -12 -13 -14 14 -16 16 -18 -19
leaf_value=-560.51808955439822 640.8494682742388 1077.4944471571182 -176.08893548874627 129.26823472976685 95.237661525181352 512.84530411430035 1342.9391521990742 -128.98537193885218 -369.82520653134299 -171.70680771484373 -347.00215511067705 231.9073272196452 -465.61855336782094 -541.53858289930554 -541.47465200323813 -409.6640732421875 -495.01442255434785 -240.59391760019156
leaf_weight=27 39 36 21 22 28 23 27 26 21 25 30 24 37 27 38 20 23 26
leaf_count=27 39 36 21 22 28 23 27 26 21 25 30 24 37 27 38 20 23 26
internal_value=0 703.201 -344.548 418.502 -162.455 292.828 1191.26 -12.7216 -491.733 -241.726 -276.626 182.819 -506.617 -517.853 -507.187 -488.574 -455.317 -206.826
internal_weight=0 171 349 108 156 69 63 54 193 102 51 46 172 135 108 70 43 51
internal_count=520 171 349 108 156 69 63 54 193 102 51 46 172 135 108 70 43 51
is_linear=0
shrinkage=0.01


Tree=44
num_leaves=19
num_cat=0
split_feature=10 10 10 10 5 0 0 0 10 0 10 5 0 10 10 3 10 0
split_gain=1.23505e+12 2.07886e+11 1.10984e+11 2.74571e+10 2.73742e+10 3.52226e+10 8.40412e+09 7.23159e+09 4.17971e+09 3.0132e+09 2.91016e+09 1.65816e+09 8.50179e+08 2.02395e+09 8.13739e+08 6.33699e+08 1.16733e+08 1.34337e+08
threshold=147822.00000000003 223136.90625000003 66698.000000000015 109037.50000000001 1.0000000180025095e-35 7199.5000000000009 7233.0000000000009 7233.0000000000009 60980.000000000007 7218.5000000000009 97748.097656250015 1.0000000180025095e-35 7235.0000000000009 51446.800781250007 80398.597656250015 1.0000000180025095e-35 53222.898437500007 7242.5000000000009
decision_type=2 2 2 2 2 2 2 2 2 2 2 2 2 2 2 2 2 2
left_child=2 4 8 10 5 -2 -7 -3 12 -5 11 14 13 -1 -4 16 17 -14
right_child=1 7 3 9 -6 6 -8 -9 -10 -11 -12 -13 15 -15 -16 -17 -18 -19
leaf_value=-519.31811602618245 641.75535049438474 1142.5951483154297 -251.59141630284924 136.02857776096889 763.86536970214843 91.72663743239184 357.29029230291189 1378.1149946732955 -351.00248516264418 -24.680451721191407 -108.32520926339286 -314.50633367365054 -505.14177010995371 -405.44882306134264 -185.05047566223143 -470.30673658288043 -547.54201249999994 -534.64947314792209
leaf_weight=37 32 32 34 28 25 26 22 22 21 20 21 22 27 27 40 23 25 36
leaf_count=37 32 32 34 28 25 26 22 22 21 20 21 22 27 27 40 23 25 36
internal_value=0 734.337 -323.434 -132.333 475.029 384.768 213.443 1238.55 -484.31 69.0665 -214.958 -238.284 -500.307 -471.28 -215.623 -517.043 -529.259 -522.003
internal_weight=0 159 361 165 105 80 48 54 196 48 117 96 175 64 74 111 88 63
internal_count=520 159 361 165 105 80 48 54 196 48 117 96 175 64 74 111 88 63
is_linear=0
shrinkage=0.01


Tree=45
num_leaves=19
num_cat=0
split_feature=10 10 10 0 10 10 10 0 10 0 10 10 0 10 3 10 0 10
split_gain=1.21048e+12 2.28641e+11 8.98235e+10 2.91059e+10 1.7188e+10 1.61975e+10 1.04286e+10 6.57672e+09 4.09654e+09 1.18768e+09 1.14178e+09 9.54665e+08 8.3326e+08 1.98367e+09 6.21088e+08 1.14411e+08 1.31664e+08 9.46172e+07
threshold=141885.29687500003 215604.70312500003 66698.000000000015 7199.5000000000009 98664.402343750015 186981.39843750003 268351.20312500006 7218.5000000000009 60980.000000000007 7235.0000000000009 160707.39843750003 80976.300781250015 7235.0000000000009 51446.800781250007 1.0000000180025095e-35 53222.898437500007 7242.5000000000009 90191.000000000015
decision_type=2 2 2 2 2 2 2 2 2 2 2 2 2 2 2 2 2 2
left_child=2 3 8 -2 9 10 -3 -6 12 11 -5 -4 13 -1 15 16 -14 -13
right_child=1 6 4 5 7 -7 -8 -9 -10 -11 -12 17 14 -15 -16 -17 -18 -19
leaf_value=-514.12494404560812 628.35425153683389 1056.6143136935764 -305.09889822152945 126.19978427540173 93.710424368722101 503.25292448624322 1316.6009201388888 -127.15916428786059 -347.49245886666432 -181.89638411458336 225.9360256576538 -213.15709222702753 -500.09035156250002 -401.39432870370371 -465.60367442255432 -542.06659375000004 -529.30297221289743 -242.83261097301136
leaf_weight=37 39 36 26 22 28 23 27 26 21 30 24 21 27 27 23 25 36 22
leaf_count=37 39 36 26 22 28 23 27 26 21 30 24 21 27 27 23 25 36 22
internal_value=0 689.274 -337.724 409.995 -156.146 286.575 1168.04 -12.6342 -479.467 -234.425 178.236 -257.264 -495.304 -466.567 -511.873 -523.966 -516.783 -228.34
internal_weight=0 171 349 108 153 69 63 54 196 99 46 69 175 64 111 88 63 43
internal_count=520 171 349 108 153 69 63 54 196 99 46 69 175 64 111 88 63 43
is_linear=0
shrinkage=0.01


Tree=46
num_leaves=19
num_cat=0
split_feature=10 10 10 5 0 10 0 0 10 0 10 5 0 10 10 3 10 0
split_gain=1.18664e+12 1.99951e+11 1.06564e+11 2.68747e+10 3.40289e+10 2.64032e+10 8.12094e+09 7.01513e+09 4.01502e+09 2.85566e+09 2.77075e+09 1.61991e+09 8.16678e+08 1.94419e+09 7.94988e+08 6.08729e+08 1.12134e+08 1.29044e+08
threshold=147822.00000000003 223136.90625000003 66698.000000000015 1.0000000180025095e-35 7199.5000000000009 109037.50000000001 7233.0000000000009 7233.0000000000009 60980.000000000007 7218.5000000000009 97748.097656250015 1.0000000180025095e-35 7235.0000000000009 51446.800781250007 80398.597656250015 1.0000000180025095e-35 53222.898437500007 7242.5000000000009
decision_type=2 2 2 2 2 2 2 2 2 2 2 2 2 2 2 2 2 2
left_child=2 3 8 4 -2 10 -6 -3 12 -7 11 14 13 -1 -4 16 17 -14
right_child=1 7 5 -5 6 9 -8 -9 -10 -11 -12 -13 15 -15 -16 -17 -18 -19
leaf_value=-508.98369404560816 628.65276603698737 1119.7906066894532 -246.71300813562732 751.68021515045166 88.013003322894761 132.90939834594727 349.06418490323153 1351.7587642045455 -344.01753547305157 -23.542088684082032 -106.75170200892858 -308.89764609596949 -495.08944444444444 -397.38038700810182 -180.94319976806642 -460.94763162364131 -536.645921875 -524.00994452582472
leaf_weight=37 32 32 34 25 26 28 22 22 21 20 21 22 27 27 40 23 25 36
leaf_count=37 32 32 34 25 26 28 22 22 21 20 21 22 27 27 40 23 25 36
internal_value=0 719.803 -317.032 465.492 376.058 -129.775 207.661 1214.3 -474.672 67.7213 -210.799 -233.56 -490.351 -461.901 -211.162 -506.754 -518.726 -511.615
internal_weight=0 159 361 105 80 165 48 54 196 48 117 96 175 64 74 111 88 63
internal_count=520 159 361 105 80 165 48 54 196 48 117 96 175 64 74 111 88 63
is_linear=0
shrinkage=0.01


Tree=47
num_leaves=19
num_cat=0
split_feature=10 10 10 5 0 10 0 0 10 0 10 5 0 10 10 3 10 0
split_gain=1.16303e+12 1.95972e+11 1.04444e+11 2.63399e+10 3.33517e+10 2.58778e+10 7.95933e+09 6.87553e+09 3.93512e+09 2.79883e+09 2.71561e+09 1.58768e+09 8.00426e+08 1.9055e+09 7.79167e+08 5.96615e+08 1.09902e+08 1.26476e+08
threshold=147822.00000000003 223136.90625000003 66698.000000000015 1.0000000180025095e-35 7199.5000000000009 109037.50000000001 7233.0000000000009 7233.0000000000009 60980.000000000007 7218.5000000000009 97748.097656250015 1.0000000180025095e-35 7235.0000000000009 51446.800781250007 80398.597656250015 1.0000000180025095e-35 53222.898437500007 7242.5000000000009
decision_type=2 2 2 2 2 2 2 2 2 2 2 2 2 2 2 2 2 2
left_child=2 3 8 4 -2 10 -6 -3 12 -7 11 14 13 -1 -4 16 17 -14
right_child=1 7 5 -5 6 9 -8 -9 -10 -11 -12 -13 15 -15 -16 -17 -18 -19
leaf_value=-503.89385689400342 622.36622768402106 1108.5926940917968 -244.24587100758274 744.16340263671884 87.132878385690546 131.58030090059552 345.57353648792611 1338.2411505681819 -340.57735505603608 -23.30668035888672 -105.68417782738095 -305.8086647727273 -490.1385546875 -393.40658673321764 -179.13376919555662 -456.33816491168483 -531.27945898437497 -518.76984683566627
leaf_weight=37 32 32 34 25 26 28 22 22 21 20 21 22 27 27 40 23 25 36
leaf_count=37 32 32 34 25 26 28 22 22 21 20 21 22 27 27 40 23 25 36
internal_value=0 712.605 -313.862 460.837 372.297 -128.477 205.585 1202.15 -469.925 67.0441 -208.691 -231.224 -485.447 -457.282 -209.05 -501.687 -513.539 -506.499
internal_weight=0 159 361 105 80 165 48 54 196 48 117 96 175 64 74 111 88 63
internal_count=520 159 361 105 80 165 48 54 196 48 117 96 175 64 74 111 88 63
is_linear=0
shrinkage=0.01


Tree=48
num_leaves=19
num_cat=0
split_feature=10 10 10 0 10 10 10 0 10 10 10 10 1 0 10 0 0 10
split_gain=1.14008e+12 2.16024e+11 8.44984e+10 2.76242e+10 1.6677e+10 1.55471e+10 9.79055e+09 6.3195e+09 3.15886e+09 1.16488e+09 3.51801e+09 1.0375e+09 7.84948e+08 5.99998e+08 5.94484e+08 6.47093e+08 1.26796e+09 7.48724e+08
threshold=141885.29687500003 215604.70312500003 66228.500000000015 7199.5000000000009 98664.402343750015 186981.39843750003 268351.20312500006 7218.5000000000009 60013.199218750007 72784.000000000015 80398.597656250015 160707.39843750003 1.0000000180025095e-35 7218.5000000000009 43254.500000000007 7242.5000000000009 7185.5000000000009 52623.000000000007
decision_type=2 2 2 2 2 2 2 2 2 2 2 2 2 2 2 2 2 2
left_child=2 3 8 -2 9 11 -3 -6 12 -4 -11 -5 14 -12 -1 16 -16 -18
right_child=1 6 4 5 7 -7 -8 -9 -10 10 13 -13 -14 -15 15 -17 17 -19
leaf_value=-534.93933883101852 610.19568484184072 1026.3373990885418 -163.54481025695802 121.48504029707476 91.661389465332036 489.51316193953807 1278.2446296296296 -124.84590247521034 -351.86787208193829 -333.049444132487 -161.59789937744142 216.55799558003741 -440.98023529877537 -230.21041020320013 -518.15269965277787 -515.69976254111839 -385.96948828125005 -469.62916227921198
leaf_weight=27 39 36 21 22 28 23 27 26 21 30 25 24 37 26 27 38 20 23
leaf_count=27 39 36 21 22 28 23 27 26 21 30 25 24 37 26 27 38 20 23
internal_value=0 668.931 -327.757 397.468 -154.685 277.23 1134.3 -12.5829 -467.65 -229.915 -247.122 171.088 -481.786 -196.577 -492.97 -482.478 -464.443 -430.718
internal_weight=0 171 349 108 156 69 63 54 193 102 81 46 172 51 135 108 70 43
internal_count=520 171 349 108 156 69 63 54 193 102 81 46 172 51 135 108 70 43
is_linear=0
shrinkage=0.01


Tree=49
num_leaves=19
num_cat=0
split_feature=10 10 10 5 0 10 0 0 10 10 0 10 0 10 3 10 0 10
split_gain=1.11744e+12 1.88487e+11 1.00314e+11 2.58589e+10 3.22207e+10 2.49098e+10 7.69075e+09 6.67015e+09 4.40134e+09 3.77411e+09 1.19015e+09 8.86412e+08 7.82897e+08 1.86738e+09 5.86225e+08 1.09491e+08 1.2139e+08 9.64514e+07
threshold=147822.00000000003 223136.90625000003 66698.000000000015 1.0000000180025095e-35 7199.5000000000009 116137.80078125001 7233.0000000000009 7233.0000000000009 98664.402343750015 60980.000000000007 7235.0000000000009 80976.300781250015 7235.0000000000009 51446.800781250007 1.0000000180025095e-35 53222.898437500007 7242.5000000000009 90191.000000000015
decision_type=2 2 2 2 2 2 2 2 2 2 2 2 2 2 2 2 2 2
left_child=2 3 9 4 -2 8 -6 -3 10 12 11 -4 13 -1 15 16 -14 -13
right_child=1 7 5 -5 6 -7 -8 -9 -10 -11 -12 17 14 -15 -16 -17 -18 -19
leaf_value=-494.08521748310812 609.65046846389771 1086.4561694335937 -294.14600204467774 732.31344580078121 83.5603417616624 94.882859903971351 337.60313953746453 1312.6488121448865 -81.151723994502319 -333.9219328380766 -172.60704231770833 -204.85255122593469 -480.55154369212966 -384.70889648437503 -446.90588315217394 -521.31373437499997 -508.6012577311198 -234.8143195134943
leaf_weight=37 32 32 26 25 26 39 22 22 27 21 30 21 27 27 23 25 36 22
leaf_count=37 32 32 26 25 26 39 22 22 27 21 30 21 27 27 23 25 36 22
internal_value=0 698.499 -307.649 451.586 363.858 -125.967 199.997 1178.61 -194.325 -460.596 -225.19 -248.052 -475.797 -447.942 -491.858 -503.607 -496.58 -220.182
internal_weight=0 159 361 105 80 165 48 54 126 196 99 69 175 64 111 88 63 43
internal_count=520 159 361 105 80 165 48 54 126 196 99 69 175 64 111 88 63 43
is_linear=0
shrinkage=0.01


Tree=50
num_leaves=19
num_cat=0
split_feature=10 10 10 0 10 10 10 0 10 0 10 10 0 10 10 0 10 10
split_gain=1.09536e+12 2.07885e+11 8.11504e+10 2.66533e+10 1.54697e+10 1.50841e+10 9.39079e+09 6.1862e+09 3.69901e+09 1.16646e+09 9.80303e+08 8.68772e+08 7.67318e+08 1.83022e+09 5.80498e+08 6.94094e+08 9.4532e+07 7.01219e+06
threshold=141885.29687500003 215604.70312500003 66698.000000000015 7199.5000000000009 98664.402343750015 186981.39843750003 268351.20312500006 7218.5000000000009 60980.000000000007 7235.0000000000009 160707.39843750003 80976.300781250015 7235.0000000000009 51446.800781250007 44764.000000000007 7242.5000000000009 90191.000000000015 49505.699218750007
decision_type=2 2 2 2 2 2 2 2 2 2 2 2 2 2 2 2 2 2
left_child=2 3 8 -2 9 10 -3 -6 12 11 -5 -4 13 -1 -14 -16 -13 -17
right_child=1 6 4 5 7 -7 -8 -9 -10 -11 -12 16 14 -15 15 17 -18 -19
leaf_value=-489.14436299092063 598.3364859439165 1006.4625851779514 -291.2045392549955 118.50874814120208 90.613252301897319 480.3720686141304 1253.1733933738426 -123.59839993990386 -330.58271408807661 -170.88097721354166 210.92365112304688 -202.8040272285825 -446.60287715205442 -380.86181631582753 -468.27756424753289 -529.45538311298083 -232.46617764559659 -521.57941406250006
leaf_weight=37 39 36 26 22 28 23 27 26 21 30 24 21 27 27 38 26 22 20
leaf_count=37 39 36 26 22 28 23 27 26 21 30 24 21 27 27 38 26 22 20
internal_value=0 655.681 -321.265 389.38 -148.675 271.274 1112.2 -12.5257 -455.99 -222.938 166.725 -245.572 -471.039 -443.463 -486.939 -499.904 -217.98 -526.031
internal_weight=0 171 349 108 153 69 63 54 196 99 46 69 175 64 111 84 43 46
internal_count=520 171 349 108 153 69 63 54 196 99 46 69 175 64 111 84 43 46
is_linear=0
shrinkage=0.01


Tree=51
num_leaves=19
num_cat=0
split_feature=10 10 10 5 0 10 0 0 10 10 0 10 0 10 3 10 0 10
split_gain=1.07364e+12 1.81288e+11 9.63196e+10 2.53864e+10 3.11284e+10 2.39693e+10 7.43117e+09 6.47129e+09 4.19212e+09 3.6254e+09 1.14325e+09 8.51484e+08 7.52048e+08 1.7938e+09 5.75816e+08 1.08663e+08 1.13843e+08 9.26508e+07
threshold=147822.00000000003 223136.90625000003 66698.000000000015 1.0000000180025095e-35 7199.5000000000009 116137.80078125001 7233.0000000000009 7233.0000000000009 98664.402343750015 60980.000000000007 7235.0000000000009 80976.300781250015 7235.0000000000009 51446.800781250007 1.0000000180025095e-35 53222.898437500007 7242.5000000000009 90191.000000000015
decision_type=2 2 2 2 2 2 2 2 2 2 2 2 2 2 2 2 2 2
left_child=2 3 9 4 -2 8 -6 -3 10 12 11 -4 13 -1 15 16 -14 -13
right_child=1 7 5 -5 6 -7 -8 -9 -10 -11 -12 17 14 -15 -16 -17 -18 -19
leaf_value=-484.25292084565035 597.1879882526398 1064.756021118164 -288.29249549278848 720.67130351562503 80.083634713979862 93.109053720327523 329.80246154785158 1287.5512606534091 -80.13561704282408 -327.27688598632812 -169.17217024739585 -200.77598549252463 -471.19169162326392 -377.05319326895255 -437.51879840353263 -511.35386835937499 -498.35545315212676 -230.14152121803977
leaf_weight=37 32 32 26 25 26 39 22 22 27 21 30 21 27 27 23 25 36 22
leaf_count=37 32 32 26 25 26 39 22 22 27 21 30 21 27 27 23 25 36 22
internal_value=0 684.673 -301.559 442.52 355.598 -123.531 194.538 1155.52 -190.586 -451.43 -220.709 -243.116 -466.329 -439.028 -482.07 -493.714 -486.714 -215.8
internal_weight=0 159 361 105 80 165 48 54 126 196 99 69 175 64 111 88 63 43
internal_count=520 159 361 105 80 165 48 54 126 196 99 69 175 64 111 88 63 43
is_linear=0
shrinkage=0.01


Tree=52
num_leaves=19
num_cat=0
split_feature=10 10 10 0 10 10 10 0 10 0 10 10 0 10 10 0 10 10
split_gain=1.0524e+12 2.00054e+11 7.79182e+10 2.57168e+10 1.48329e+10 1.46352e+10 9.0068e+09 6.05575e+09 3.55325e+09 1.1205e+09 9.25919e+08 8.34539e+08 7.37082e+08 1.7581e+09 5.65154e+08 6.81873e+08 9.0807e+07 6.64493e+06
threshold=141885.29687500003 215604.70312500003 66698.000000000015 7199.5000000000009 98664.402343750015 186981.39843750003 268351.20312500006 7218.5000000000009 60980.000000000007 7235.0000000000009 160707.39843750003 80976.300781250015 7235.0000000000009 51446.800781250007 44764.000000000007 7242.5000000000009 90191.000000000015 49505.699218750007
decision_type=2 2 2 2 2 2 2 2 2 2 2 2 2 2 2 2 2 2
left_child=2 3 8 -2 9 10 -3 -6 12 11 -5 -4 13 -1 -14 -16 -13 -17
right_child=1 6 4 5 7 -7 -8 -9 -10 -11 -12 16 14 -15 15 17 -18 -19
leaf_value=-479.41039154877535 586.70827223557694 986.97711208767362 -285.40956784761869 115.60193310824309 89.580382210867739 471.40644594938857 1228.5913425925926 -122.36064716045674 -324.00412016369046 -167.48044205729167 205.41685161590576 -198.76822705950056 -437.4494561993634 -373.28266918041089 -458.69465537623358 -519.27086688701922 -227.84009987571022 -511.60392187500003
leaf_weight=37 39 36 26 22 28 23 27 26 21 30 24 21 27 27 38 26 22 20
leaf_count=37 39 36 26 22 28 23 27 26 21 30 24 21 27 27 38 26 22 20
internal_value=0 642.692 -314.901 381.456 -145.783 265.443 1090.53 -12.4653 -446.916 -218.502 162.462 -240.685 -461.666 -434.638 -477.249 -490.042 -213.642 -515.937
internal_weight=0 171 349 108 153 69 63 54 196 99 46 69 175 64 111 84 43 46
internal_count=520 171 349 108 153 69 63 54 196 99 46 69 175 64 111 84 43 46
is_linear=0
shrinkage=0.01


Tree=53
num_leaves=19
num_cat=0
split_feature=10 10 10 5 0 10 0 0 10 10 0 10 1 3 10 0 10 10
split_gain=1.03156e+12 1.74364e+11 9.24842e+10 2.49221e+10 3.00733e+10 2.30648e+10 7.1803e+09 6.27872e+09 3.99251e+09 3.48254e+09 1.0982e+09 8.17932e+08 7.30108e+08 7.47776e+08 1.36814e+09 4.87331e+08 1.24762e+09 8.9e+07
threshold=147822.00000000003 223136.90625000003 66698.000000000015 1.0000000180025095e-35 7199.5000000000009 116137.80078125001 7233.0000000000009 7233.0000000000009 98664.402343750015 60980.000000000007 7235.0000000000009 80976.300781250015 1.0000000180025095e-35 1.0000000180025095e-35 43254.500000000007 7242.5000000000009 52186.601562500007 90191.000000000015
decision_type=2 2 2 2 2 2 2 2 2 2 2 2 2 2 2 2 2 2
left_child=2 3 9 4 -2 8 -6 -3 10 12 11 -4 13 14 -1 16 -16 -13
right_child=1 7 5 -5 6 -7 -8 -9 -10 -11 -12 17 -14 -15 15 -17 -18 -19
leaf_value=-548.8326235563859 584.97377689361576 1043.4836309814452 -282.55547295203576 709.23307929687496 76.700504449697632 91.371030915089136 322.16800681374292 1262.9389675071022 -79.131108398437505 -320.76407505580357 -165.80563639322918 -196.78054393949964 -417.60195609427785 -426.10270833333334 -390.34749145507811 -496.35184968171302 -486.38396893901211 -225.56169966264207
leaf_weight=23 32 32 26 25 26 39 22 22 27 21 30 21 37 33 24 27 31 22
leaf_count=23 32 32 26 25 26 39 22 22 27 21 30 21 37 33 24 27 31 22
internal_value=0 671.12 -295.59 433.637 347.513 -121.142 189.206 1132.89 -186.92 -442.447 -216.317 -238.278 -457.049 -467.625 -480.675 -461.558 -444.477 -211.506
internal_weight=0 159 361 105 80 165 48 54 126 196 99 69 175 138 105 82 55 43
internal_count=520 159 361 105 80 165 48 54 126 196 99 69 175 138 105 82 55 43
is_linear=0
shrinkage=0.01


Tree=54
num_leaves=19
num_cat=0
split_feature=10 10 10 0 10 10 10 0 10 10 10 10 1 0 10 0 0 10
split_gain=1.01112e+12 1.92519e+11 7.48231e+10 2.48134e+10 1.46967e+10 1.42e+10 8.63798e+09 5.92808e+09 2.79579e+09 1.1749e+09 3.40837e+09 8.74227e+08 7.6091e+08 5.88975e+08 5.67355e+08 5.78175e+08 1.29195e+09 7.21249e+08
threshold=141885.29687500003 215604.70312500003 66228.500000000015 7199.5000000000009 98664.402343750015 186981.39843750003 268351.20312500006 7218.5000000000009 60013.199218750007 72784.000000000015 80398.597656250015 160707.39843750003 1.0000000180025095e-35 7218.5000000000009 43254.500000000007 7242.5000000000009 7185.5000000000009 53779.400390625007
decision_type=2 2 2 2 2 2 2 2 2 2 2 2 2 2 2 2 2 2
left_child=2 3 8 -2 9 11 -3 -6 12 -4 -11 -5 14 -12 -1 16 -16 -18
right_child=1 6 4 5 7 -7 -8 -9 -10 10 13 -13 -14 -15 15 -17 17 -19
leaf_value=-505.61399124710647 575.30653414212748 967.87330457899316 -149.76763294038321 112.76301463734021 88.562485002790183 462.61285198709237 1204.4888241464121 -121.13266160231372 -331.37790527343753 -318.28117712688447 -149.29599809570314 200.0348468701045 -413.42593842377539 -217.27530555138222 -491.53151692708337 -485.76647666529607 -365.08232719089676 -447.1926962890625
leaf_weight=27 39 36 21 22 28 23 27 26 21 30 25 24 37 26 27 38 23 20
leaf_count=27 39 36 21 22 28 23 27 26 21 30 25 24 37 26 27 38 23 20
internal_value=0 629.961 -308.663 373.691 -145.8 259.735 1069.28 -12.4018 -440.303 -216.423 -233.704 158.296 -453.602 -183.952 -464.613 -454.363 -437.316 -403.273
internal_weight=0 171 349 108 156 69 63 54 193 102 81 46 172 51 135 108 70 43
internal_count=520 171 349 108 156 69 63 54 193 102 81 46 172 51 135 108 70 43
is_linear=0
shrinkage=0.01


Tree=55
num_leaves=19
num_cat=0
split_feature=10 10 10 5 0 10 0 0 10 10 0 0 0 10 10 0 10 10
split_gain=9.91122e+11 1.67703e+11 8.88284e+10 2.4466e+10 2.90542e+10 2.21894e+10 6.93785e+09 6.09224e+09 3.79964e+09 3.33973e+09 1.0889e+09 8.00187e+08 7.14708e+08 1.72689e+09 5.6987e+08 6.51709e+08 8.25017e+07 6.63935e+06
threshold=147822.00000000003 223136.90625000003 66698.000000000015 1.0000000180025095e-35 7199.5000000000009 116137.80078125001 7233.0000000000009 7233.0000000000009 98664.402343750015 60980.000000000007 7235.0000000000009 7191.0000000000009 7235.0000000000009 51446.800781250007 44764.000000000007 7242.5000000000009 88131.097656250015 49505.699218750007
decision_type=2 2 2 2 2 2 2 2 2 2 2 2 2 2 2 2 2 2
left_child=2 3 9 4 -2 8 -6 -3 10 12 11 -4 13 -1 -14 -16 -13 -17
right_child=1 7 5 -5 6 -7 -8 -9 -10 -11 -12 16 14 -15 15 17 -18 -19
leaf_value=-465.72243744721288 573.00294101715087 1022.6306661987305 -190.04296494704028 697.994983203125 73.408759830181424 89.668044378818621 314.69634500676938 1238.8024875710228 -78.138118489583334 -314.50210728236607 -161.67232291666667 -245.46362202453614 -423.34319552951393 -360.54076470269092 -445.50856265419412 -504.80293419471155 -273.23432532269021 -497.13920898437499
leaf_weight=37 32 32 26 25 26 39 22 22 27 21 30 20 27 27 38 26 23 20
leaf_count=37 32 32 26 25 26 39 22 22 27 21 30 20 27 27 38 26 23 20
internal_value=0 657.835 -289.739 424.933 339.601 -118.773 183.999 1110.7 -183.291 -433.664 -211.969 -233.837 -447.963 -421.349 -463.309 -476.155 -260.318 -501.471
internal_weight=0 159 361 105 80 165 48 54 126 196 99 69 175 64 111 84 43 46
internal_count=520 159 361 105 80 165 48 54 126 196 99 69 175 64 111 84 43 46
is_linear=0
shrinkage=0.01


Tree=56
num_leaves=19
num_cat=0
split_feature=10 10 10 0 10 10 10 0 10 0 10 10 1 3 10 10 0 10
split_gain=9.71454e+11 1.85269e+11 7.18595e+10 2.39419e+10 1.37781e+10 1.36312e+10 8.28373e+09 5.80315e+09 3.27327e+09 1.06723e+09 8.25104e+08 7.90611e+08 7.03305e+08 7.29401e+08 1.32745e+09 4.80519e+08 1.19469e+09 8.47297e+07
threshold=141885.29687500003 215604.70312500003 66698.000000000015 7199.5000000000009 186981.39843750003 98664.402343750015 268351.20312500006 7218.5000000000009 60980.000000000007 7235.0000000000009 160707.39843750003 80976.300781250015 1.0000000180025095e-35 1.0000000180025095e-35 43254.500000000007 52186.601562500007 7242.5000000000009 90191.000000000015
decision_type=2 2 2 2 2 2 2 2 2 2 2 2 2 2 2 2 2 2
left_child=2 3 8 -2 10 9 -3 -7 12 11 -5 -4 13 14 -1 16 -16 -13
right_child=1 6 5 4 -6 7 -8 -9 -10 -11 -12 17 -14 -15 15 -17 -18 -19
leaf_value=-533.88889563519024 564.12688016451318 949.14370686848952 -275.0305848341722 109.99046424172143 453.98792629076087 87.559279087611614 1180.8565418836806 -119.91443847656251 -311.35707833426341 -160.05560156249999 194.77493934631349 -190.80994262695313 -404.76759079391894 -412.85489228219694 -377.7738028971354 -474.61828494510132 -481.05436267671132 -218.89214266690342
leaf_weight=23 39 36 26 22 23 28 27 26 21 30 24 21 37 33 24 37 21 22
leaf_count=23 39 36 26 22 23 28 27 26 21 30 24 21 37 33 24 37 21 22
internal_value=0 617.482 -302.548 366.084 254.147 -140.139 1048.45 -12.3355 -429.327 -209.849 154.226 -231.499 -443.484 -453.864 -466.753 -447.922 -425.971 -205.178
internal_weight=0 171 349 108 69 153 63 54 196 99 46 69 175 138 105 82 45 43
internal_count=520 171 349 108 69 153 63 54 196 99 46 69 175 138 105 82 45 43
is_linear=0
shrinkage=0.01


Tree=57
num_leaves=19
num_cat=0
split_feature=10 10 10 5 0 10 0 0 10 10 0 0 0 10 10 0 10 10
split_gain=9.52272e+11 1.61296e+11 8.52914e+10 2.40179e+10 2.80699e+10 2.13531e+10 6.70352e+09 5.91165e+09 3.61808e+09 3.20813e+09 1.046e+09 7.86342e+08 6.93596e+08 1.69647e+09 5.66148e+08 6.36286e+08 8.27989e+07 6.40637e+06
